#ifndef MODEL_PARAMS_H
#define MODEL_PARAMS_H

// Auto-generated by export_to_cpp.py
// Structure: 6 -> 64 -> 64 -> 6

const double scaler_x_mean[6] = {
    1.04970343, 1.28539890, -0.27217350, 1.41013005, 1.88852848, 0.60698688
};

const double scaler_x_scale[6] = {
    0.84074675, 0.44348462, 0.90495157, 0.32976395, 0.61659422, 0.26226370
};

const double scaler_y_mean[6] = {
    6.55840002, 5.58239762, 6.12553586, -0.50727623, 0.38589821, 0.02679084
};

const double scaler_y_scale[6] = {
    4.94118917, 5.26786356, 6.43221146, 0.28645745, 0.27292029, 0.04489007
};

const double w1[768] = {
    0.39465401, -0.00824318, -0.30561006, 0.00282201, -0.45145211, -0.20553501, -0.41604796, -0.33415198, -0.24348743, -0.36434671, 0.43811613, 0.47850659, -0.08645775, 0.33161542, 0.20900346, 0.44657561, 0.09414931, -0.15689519, 0.01831768, -0.13220340, 0.23884653, -0.09576588, -0.11073358, -0.01497135, -0.22542317, 0.24803326, 0.22140296, -0.25182721, 0.01209988, 0.16123766, -0.30654892, -0.04428528, -0.37281016, 0.12840323, 0.37032685, -0.09697424, -0.02392651, -0.16279396, 0.16884737, -0.27842653, -0.18062420, 0.17125939, -0.35172322, 0.27404997, 0.57810831, 0.16658729, -0.19171283, -0.15121247, 0.09208180, -0.08310919, -0.38897738, 0.29515263, -0.54345220, -0.12427256, 0.20838569, -0.30534232, -0.40693206, -0.01783688, 0.32408014, 0.34613290, 0.28419721, 0.05461965, 0.26247063, -0.21510434, 0.18498152, -0.03455811, 0.11642050, -0.04527892, -0.13753299, 0.13281000, -0.25302291, 0.36204305, 0.26223060, -0.39010951, -0.02609814, -0.04606220, 0.29785177, 0.31899661, -0.07987861, 0.18912193, -0.07897759, 0.18247303, -0.30237705, 0.24032554, -0.16286078, -0.14720155, -0.15284483, -0.22167289, 0.23283747, 0.36784294, 0.14990403, -0.10035979, 0.07132221, -0.04440136, -0.37552127, 0.11123766, -0.10970034, -0.08971150, -0.15292133, 0.15573980, 0.13435934, 0.01774871, -0.16393724, 0.24311124, 0.36099732, -0.49545333, 0.43002337, -0.02942836, -0.09451644, -0.22856490, 0.21109754, 0.27205518, -0.23225851, 0.12709180, 0.44839963, 0.26586309, 0.17189895, -0.01577848, 0.41010493, -0.23789494, -0.15441830, -0.12910846, -0.20374349, 0.02522765, -0.41623169, 0.00983954, -0.25774673, 0.18189180, 0.41726065, -0.27906582, 0.61114764, -0.33604965, 0.25028551, 0.09782659, 0.31904012, -0.23671332, 0.26459280, -0.23619761, -0.18695770, -0.09569377, 0.11178811, 0.10318787, 0.53881776, -0.26315057, 0.01267045, 0.11723977, 0.08320726, -0.23747656, -0.06456096, 0.08167214, 0.38714212, 0.48056921, -0.67107695, 0.26464915, -0.09238291, -0.18667181, 0.32058856, 0.09471302, -0.16983043, 0.22353870, 0.09447242, 0.24956092, -0.05903151, -0.38245195, 0.62279022, -0.30470935, 0.10634752, 0.30414703, 0.33128119, -0.44497141, 0.39866656, -0.14430396, -0.25621194, 0.19304460, 0.35589182, 0.19093786, -0.33330515, 0.14297986, -0.29875290, 0.18925507, 0.03612375, -0.16692281, -0.08092468, 0.15709883, 0.15917557, -0.11212914, 0.44663861, 0.20560150, -0.11592980, 0.32470718, -0.10312194, 0.19499685, 0.28869885, 0.24957140, 0.01691421, 0.21493232, -0.48103148, -0.14322673, 0.25171524, -0.07631891, -0.13215116, 0.10252482, 0.30791339, -0.19380917, -0.12936483, 0.36866805, 0.36688355, 0.26790091, 0.20929065, -0.07564925, -0.10565132, -0.25340456, -0.66425914, -0.10728898, 0.09498838, 0.21518974, -0.16419607, -0.01023165, 0.00435643, -0.00825700, 0.07482146, 0.08165853, 0.29177943, 0.18326683, 0.24540065, -0.46262893, 0.30303201, 0.22754392, -0.25877073, 0.13754100, 0.40666345, 0.44204751, 0.02782753, -0.00638491, -0.11620145, 0.59100312, -0.02769719, 0.46681535, -0.39663759, 0.42078546, -0.14743496, 0.02686466, -0.37719432, -0.14957473, -0.09107368, 0.05675772, -0.07677081, -0.23069106, -0.08107628, -0.34685311, 0.49589035, -0.20789194, -0.19746748, 0.07502197, -0.53941542, -0.25566736, 0.44338027, 0.13370404, 0.10635700, -0.35267413, -0.32554027, -0.14309224, -0.04220656, 0.67332268, 0.21283840, -0.02524240, 0.29119992, -0.16589114, -0.23156856, -0.27138484, 0.33528966, -0.22133359, 0.19505802, 0.35450208, -0.10270446, -0.44636825, -0.15434605, -0.02356786, -0.48204491, -0.11054457, -0.07747953, -0.06939603, -0.05829271, -0.12960772, 0.22204778, 0.54984123, -0.25421539, 0.09678888, -0.15917394, -0.02339784, -0.01300825, 0.05704737, 0.03092691, -0.12083870, 0.40701991, 0.21692973, -0.30937704, -0.13795163, -0.33854234, -0.26845869, -0.21518043, 0.45834091, 0.39175367, 0.30341926, -0.26297534, 0.24535054, 0.08803725, 0.04325188, 0.18760751, -0.01338445, 0.05725984, -0.09352931, -0.34084147, 0.40842360, 0.49819681, 0.02237031, -0.02676975, 0.05848526, 0.38929757, 0.24434052, 0.05719625, -0.13235152, 0.38808289, 0.18002267, 0.17166518, -0.01960797, -0.55681568, 0.21116967, 0.10544245, -0.18025105, -0.13971502, 0.06281442, -0.36045060, -0.13966209, -0.10473582, 0.13463826, -0.32012561, -0.02716057, 0.35781056, -0.35797802, 0.59228349, -0.10034323, 0.21653391, -0.01008710, 0.18515275, 0.03913812, 0.07891623, -0.24795456, 0.03167929, 0.11266134, -0.15096879, 0.07655035, -0.02677129, -0.12639159, 0.23482889, 0.14331272, -0.48657036, -0.31436688, -0.38480043, 0.34304512, 0.01694748, -0.10032818, -0.23097636, 0.06261903, 0.34759384, -0.11116017, 0.10229033, -0.13915125, 0.02310239, 0.12823713, -0.05480824, 0.21998373, -0.02412535, 0.30560395, 0.40473241, 0.14507706, -0.19515356, -0.18365756, -0.28850815, 0.19601306, -0.23064418, -0.26197052, 0.32410976, -0.28429735, 0.40486094, -0.28687036, -0.04079142, 0.00137299, -0.51896369, 0.17668821, 0.01721052, -0.27209747, -0.55426353, 0.18727309, -0.10198912, -0.01593243, 0.50600088, 0.33665931, -0.04380176, -0.48333022, -0.45983756, 0.04800044, -0.15923907, -0.20059407, 0.22867401, 0.66174811, -0.21863206, -0.21143101, -0.23983593, -0.19768858, -0.40691844, 0.37196553, -0.21963006, -0.19437036, 0.13389346, 0.03763938, 0.53059042, -0.06654501, -0.15264410, -0.08737592, 0.21630006, 0.59492171, -0.12537062, 0.34295025, -0.05241784, 0.20055878, 0.01596971, -0.19726388, -0.36375025, 0.19200064, -0.18259588, -0.03092252, 0.06108354, -0.07716653, -0.25525340, -0.11528662, -0.13392980, -0.14397600, 0.13528419, 0.62661123, 0.13885574, 0.32758945, -0.20309900, 0.15598428, -0.05886794, 0.11149847, 0.31776574, -0.15185732, 0.15883522, -0.24114858, 0.17981693, -0.01905591, 0.36370689, 0.07996294, 0.57924426, 0.07577098, -0.26729867, 0.21709883, 0.15902889, 0.15400256, -0.24527161, -0.09324127, -0.34187272, -0.32890654, -0.53496891, 0.37788472, 0.00763555, -0.16449519, -0.26492664, -0.02905898, -0.53474569, -0.13267305, 0.41078323, 0.13933358, -0.14894527, -0.15656421, 0.21919437, 0.16332231, 0.28015828, 0.31575051, -0.03031018, 0.10981310, -0.56685174, -0.41179934, 0.40402839, 0.20153756, 0.36180726, -0.09748104, -0.23573892, 0.05450696, 0.05057471, -0.35303885, 0.25866812, -0.29816619, -0.24950846, 0.13987036, 0.10917804, 0.56968957, 0.36827829, -0.06174491, 0.42195505, -0.41154614, 0.43206882, -0.20701846, -0.19205314, 0.34667188, 0.28573358, 0.47246051, -0.31363973, -0.17668100, 0.27793729, -0.06676231, -0.27614254, -0.44546071, 0.36463371, 0.27714297, 0.15909265, -0.03209386, -0.00200194, -0.11610679, 0.24355985, -0.06737372, 0.08025169, 0.03977238, 0.09707473, 0.22698094, 0.07058902, 0.29193687, 0.31404275, -0.26794153, 0.25194806, 0.59701091, 0.04398835, 0.23072948, -0.08251429, 0.18533821, 0.11145823, 0.11769814, -0.09969198, -0.03646894, -0.23317370, 0.13915119, -0.17106010, -0.22351010, -0.02976342, 0.04866890, 0.21435477, -0.20476520, -0.24841204, -0.14676560, 0.34506559, 0.16533852, 0.18660147, 0.02351747, 0.20927572, -0.14800468, 0.25811365, 0.03769171, 0.15697926, 0.16229826, 0.31302613, -0.00215118, -0.01026638, 0.13904217, -0.03371380, -0.05495534, 0.32758757, 0.09442326, 0.11658056, -0.23528148, 0.03612160, 0.20753843, 0.56841308, -0.44997135, 0.16333184, 0.34308311, 0.17826886, 0.02458064, 0.04229810, -0.06225763, -0.19344220, -0.03120624, 0.54481113, -0.18860291, -0.14854823, -0.39460176, 0.23212327, -0.29564166, -0.01591402, 0.14615326, -0.40926501, 0.04163262, -0.15393122, 0.36147070, 0.14155555, 0.04241220, -0.33168128, -0.12088530, 0.02599475, -0.01446098, 0.44588301, -0.17032352, -0.48981065, 0.19755244, -0.32469854, -0.36593565, 0.42274678, -0.28290713, 0.30927023, 0.31559795, -0.51812410, -0.14954975, -0.00903923, 0.12613437, 0.13490926, 0.00751681, -0.13118601, 0.07448541, -0.37107968, -0.51005590, -0.02778735, 0.49610609, 0.35853127, -0.32278475, 0.28412798, -0.19812107, -0.72809738, -0.16089728, -0.30560249, -0.21217063, -0.09114456, -0.01680384, 0.02704226, 0.29754496, -0.18716398, -0.36457193, 0.33780637, 0.18461305, 0.09823723, 0.14135899, -0.34204951, -0.33516297, -0.29546404, 0.20643580, 0.17967026, 0.34240079, 0.42153558, -0.18669929, 0.07559231, -0.18970819, 0.36560571, -0.12475088, 0.51168877, -0.18922625, 0.02676708, 0.07068302, 0.17582276, 0.09729132, -0.09576802, 0.07985684, -0.13328993, -0.03516008, -0.47947672, -0.14650610, -0.28893483, 0.09892652, -0.19220525, -0.07758895, 0.23334622, 0.10965391, -0.23133495, -0.03914304, -0.10468953, 0.24316828, 0.24687776, 0.06766193, -0.13586377, -0.03715767, -0.20630190, -0.56713146, -0.52932441, 0.01174580, -0.42046794, 0.05721520, 0.38181630, 0.11746656, 0.21183841, 0.33137175, 0.04069686, 0.01903717, 0.16239996, 0.19753057, -0.40480882, -0.11193214, -0.34852043, -0.28021437, -0.05074416, -0.26888016, 0.10973046, 0.26397070, 0.03910027, -0.03123796, -0.24391453, -0.22491500, 0.05797909, 0.40021026, -0.00416793, -0.36498365, 0.13237625, -0.17740373, 0.30190438, -0.13991196, 0.32568353, -0.44991931, 0.27755255, 0.40598744, -0.03286237, 0.40182284, -0.05260646, 0.07908571, 0.00964998, -0.30285841, -0.34416068, -0.23481038, -0.33805332, 0.19866881, 0.19498827, -0.25687191, -0.58128363, 0.03666497, -0.38459295, 0.40002519, -0.13777052, -0.31479153, 0.04517407, 0.06680740, -0.57458657, -0.00143090, -0.08147871, -0.26601875, -0.31103966, 0.48078826, 0.06394321, 0.15294161, 0.24298002, -0.04198406, 0.06532192, -0.15532055, 0.21111514, -0.04059254, 0.24072637, -0.29132164, -0.55385894, -0.35526988, -0.40218046, 0.10026319, -0.30243215, -0.29683113, -0.30423805, -0.31836253, 0.42986891, -0.16842191, -0.26027870, -0.31559640, 0.06576366, 0.27521133, 0.01092885, -0.29782385
};

const double b1[128] = {
    -0.57531351, -0.12313934, 0.06752160, -0.37765241, 0.02734593, -0.43215021, -0.17572626, -0.01870837, -0.34269091, -0.11610772, 0.29552159, -0.14057197, -0.00973749, 0.16095890, -0.17875956, -0.55923557, 0.19298103, -0.18865806, 0.12428327, -0.15167263, 0.16906802, -0.42638078, -0.27642488, -0.08952613, 0.07292965, -0.49279004, -0.06755278, -0.38906705, -0.57574159, -0.24375144, -0.10756486, -0.34866124, 0.05881619, -0.08577681, -0.11931241, 0.15048276, 0.02326490, 0.11030802, -0.18737467, -0.19988208, 0.18540102, -0.25665024, -0.54574466, 0.08215301, 0.21848358, -0.16036662, -0.70226598, 0.10903492, -0.22935969, -0.57650441, -0.01902687, -0.08158505, -0.09751786, -0.38112003, -0.39520603, 0.13283226, 0.10890217, 0.27777371, 0.05996712, -0.50648278, 0.10423511, 0.12423548, -0.21857704, 0.06963228, -0.58582169, -0.16259843, -0.56600088, 0.11436655, -0.42601165, -0.55341679, -0.22581278, 0.06142062, -0.12766851, -0.10585982, -0.41551760, -0.16267519, 0.01920209, 0.10580072, 0.26181862, -0.29999903, -0.39789495, -0.48251167, -0.15667036, 0.08723567, 0.37112138, 0.16544968, -0.19739969, -0.39806882, -0.08612612, -0.11879458, -0.13378079, -0.07421248, 0.23594795, -0.00210393, 0.05722503, -0.34527984, 0.11667044, -0.60066134, 0.06781346, -0.05776123, -0.34285331, -0.30263531, 0.03124245, -0.59733385, -0.64946520, -0.51508260, -0.39893138, -0.42106378, 0.33012950, 0.00513596, -0.13383073, 0.22164686, -0.15565409, 0.10886770, -0.20631377, -0.83540666, 0.06241463, -0.16941589, -0.35476321, -0.06440061, 0.15180567, -0.13500610, 0.40113920, -0.30571008, -0.02720844, -0.53479791, -0.04326081, -0.00564135
};

const double w2[16384] = {
    -1.98567748, 0.19407816, -0.26959819, -0.01815343, -0.01804809, 0.04374914, -1.17248869, -0.32810766, -1.49075842, 0.13164075, 0.05855107, -0.03615487, 0.11557007, -0.03928275, 0.04899032, -0.08670060, 0.08438957, 0.10498477, -0.13181914, 0.01492983, -0.20820239, 0.15535614, -0.04019310, 0.02133317, -0.01761318, 0.18689889, 0.06182205, -0.47659129, -0.08483566, 0.10751698, -0.02870870, 0.19144638, 0.14714204, -0.02171538, -0.04177875, 0.05416096, 0.05428454, 0.01646120, -0.22944300, -0.33713350, 0.04059844, 0.13821252, 0.21293125, 0.30306169, -0.15300404, -1.87797225, -1.11025119, -0.28213194, -0.06069324, 0.00270122, -0.13306558, -0.06748579, -0.05001285, 0.12680557, 0.13498059, 0.06142696, 0.11814871, 0.01613105, 0.04033306, -0.09815159, 0.12026158, 0.06490133, -0.01282862, 0.03996773, -1.48520815, -0.13828406, -1.70003581, -1.60511684, -0.21744622, -0.00854532, -0.32546079, 0.14932251, -0.01958752, -0.37642181, -0.24726684, -0.06743883, 0.03985130, -0.03559813, 0.14423613, -0.13351569, 0.02986266, 0.07401080, 0.16144194, 0.19983855, -0.15758948, 0.00704501, 0.10568712, -0.11035246, -0.10046539, -0.03035342, 0.02151947, 0.11533406, 0.04112593, 0.09177656, 0.00195230, 0.07208841, 0.05858886, -0.11309138, -0.07702494, 0.13247082, 0.10653506, -1.26005149, 0.03684901, -0.68747050, -0.72015274, 0.02689603, 0.06890298, -0.05597150, 0.10019130, 0.03750063, -0.00876333, -0.18736753, 0.05894315, -1.98845398, 0.05130478, 0.03936460, -0.05172499, -0.08735747, -0.40210605, -0.08767392, -0.39345780, -0.02456518, -1.33919847, -0.15252781, -0.09977183, -1.45103514, 0.14636947, -0.36894104, -0.10653866, 0.13724025, -0.02088107, 0.01627123, 0.05225595, -0.12197461, 0.02997264, 0.11055381, 0.02893914, 0.08376180, 0.11352395, -0.08999387, 0.01812819, 0.10451528, 0.05578442, -0.93146348, 0.10009210, -0.11014979, 0.07684677, -0.08992142, -0.04442872, -0.18222126, 0.00133687, 0.00956387, 0.05992676, 0.03249398, 0.09947430, -0.01065923, -0.05987818, -0.01583221, 0.02950311, 0.16314167, -0.07318476, 0.02122050, -0.08829025, -0.05816797, 0.06445551, -0.11183444, -0.01652344, 0.06792732, -0.05487203, -0.08625007, 0.30338252, 0.09145205, -0.06752785, -0.14530765, -0.04602895, -0.01297455, 0.12645978, 0.12376415, 0.02256845, 0.11458580, 0.12951966, 0.08202392, -0.16713713, -0.07429034, 0.11464059, 0.07172387, -0.10634773, 0.03309776, 0.11146369, -0.01194107, 0.07091467, -0.10116965, -0.38739267, -0.01924793, -0.11191616, 0.04917598, 0.05268158, -0.17900229, -0.05411115, -0.10479262, -0.04650747, 0.11271941, -0.06075450, 0.02929986, 0.11751243, 0.02738825, 0.06783878, -0.04761091, 0.09206975, 0.05576289, 0.12583911, -0.06129920, 0.18703321, -0.00060056, -0.03133871, 0.01732431, -0.01279556, -0.03052302, -0.04637305, -0.04036483, 0.10056495, 0.01048499, 0.10980614, -0.04528843, -0.11458620, 0.11726061, 0.01400581, -0.09614542, -0.06977502, -0.13404939, 0.06566174, -0.29218158, -0.08984530, 0.12816459, 0.08444492, -0.08816384, 0.18024459, -0.04563182, -0.02080994, 0.08416505, 0.11445595, -0.04655792, 0.02901883, -0.09647454, 0.05003457, 0.11440894, 0.10708607, 0.02601894, -0.13591425, -0.18263760, -0.06981361, -0.02870021, -0.11692446, 0.02137960, 0.15913774, 0.12162786, -1.73559356, 0.08304397, -0.20653014, -0.07053141, -0.03277163, -0.00423821, 0.01866929, -0.33566168, -1.47666705, 0.09427039, 0.07935173, -0.00394107, 0.23518783, 0.10253549, 0.11810486, 0.06306063, 0.03703819, -0.02081304, -0.06042491, 0.12504816, -0.65260446, 0.05454675, -0.04655424, 0.02183571, -0.40897244, 0.01906522, -0.02450191, -2.36241531, 0.02931515, 0.12139747, 0.07169349, 0.11783159, 0.04893386, 0.06211445, 0.06773792, 0.05170901, -0.00363198, 0.11865937, -0.10732602, -0.42267397, -0.09016031, 0.23336385, 0.11140233, 0.35611904, -0.61893141, -0.88978487, -0.01838249, -0.33413577, 0.02937000, -1.62551153, -0.07291586, -0.06312299, 0.03973034, 0.12131218, 0.12020864, -0.01701776, 0.00185297, 0.05294972, -0.02791980, -0.08461121, -0.01169346, 0.04838231, -0.02535026, 0.05636537, -1.76655078, -0.10396235, -1.36392868, -1.59544599, -0.03730652, 0.03915006, -0.27371836, -0.02123352, -0.06023944, -0.32050163, -0.13999993, 0.12013422, -0.37293178, -0.03275245, 0.06150066, 0.10519604, 0.08377939, -0.97785664, 0.16568336, 0.21073873, -0.19913054, 0.21865292, 0.09901215, 0.08590566, -0.05363888, -0.07685965, -0.46921879, 0.16984384, 0.14048590, 0.14086521, -0.03526316, 0.21340865, 0.00999811, -0.07184796, 0.08595821, -0.06034686, 0.08109859, -1.21825373, 0.12725373, -0.48212808, -1.76981282, -0.04906506, -0.09584697, -0.08238062, 0.08877084, -0.01064330, -0.52578282, -0.95078635, 0.00144450, -0.81365585, 0.08953959, -0.02782540, 0.02555871, -0.38060212, -0.01745764, 0.00509612, -0.08754850, -0.06259114, -1.26054120, -0.25036877, -0.14567806, -1.49805534, 0.12403821, -0.51471198, 0.00631331, -0.11313395, 0.02708538, -0.04480639, 0.06084910, -0.01724235, 0.06610180, 0.11381809, 0.01157760, -0.05201840, 0.00641914, 0.07608723, -0.08120365, 0.05793245, -0.05434726, -0.34032080, 0.00875297, 0.04104015, 0.09898619, 0.06410820, 0.06419810, 0.06465659, -0.01127100, -0.07909343, 0.09253862, -0.40595710, 0.02181632, -0.04812837, -0.44049439, -0.14689307, -0.12770666, 0.00812643, -0.00333296, 0.03593332, 0.11323374, -0.01720319, 0.01821055, -0.02229534, 0.07799353, 0.11196128, -0.05704424, -0.09441828, -0.45985931, -0.21161775, 0.01564045, 0.11331817, 0.01405266, -0.06890996, -0.06599235, -0.37485924, 0.25047436, -0.06412771, 0.09511697, -0.07681498, -0.51232487, 0.03574032, 0.08578837, 0.03620092, -0.02277610, -0.34649420, -0.05007549, 0.12357752, -0.10465352, 0.03448645, -0.32514122, -0.02377558, -0.10968377, -0.04437647, -0.34525973, -0.28666312, 0.08726459, 0.00338798, -0.05861568, 0.12329105, 0.05228050, -0.04111032, 0.05258650, 0.00726312, -0.07264354, -0.02944433, -0.50788909, 0.07809616, -0.21431586, -0.09996229, -0.01898034, 0.01735045, -0.10032016, 0.00792571, 0.07485515, -0.08430321, -0.04932004, -0.13927709, 0.00477378, -0.03605428, -0.01418534, -0.65325564, 0.15150528, -0.67495918, 0.11029949, -0.00653929, -0.05771600, -0.25103828, 0.01269474, 0.47888869, -0.03917838, -0.07330648, -0.01695892, 0.01018343, -0.01144816, 0.02569242, -0.08771031, 0.04548624, -0.06806679, 0.07703104, -0.44113430, -0.20637107, 0.07176647, -0.03297641, 0.06522713, 0.01079355, -0.02011866, 0.11444489, -0.00182856, -0.00237488, -0.05767620, -0.00931603, -0.03295887, 0.08554132, -0.13270445, -0.06373534, 0.00544037, -0.06455869, 0.07571521, -0.02562985, -0.03841825, 0.11835717, -0.14646238, -0.02539113, 0.10527430, 0.08318646, 0.01348321, -0.00140404, -0.08713339, -0.09009741, -0.00222992, 0.06845380, 0.03155483, -0.00260126, 0.09722090, 0.13928151, 0.04407370, -0.04550478, 0.09233646, -0.18641509, -0.04756020, -0.01488017, -0.11513166, -0.06444433, 0.03146694, -0.09261070, 0.02109318, 0.02240566, 0.07036489, 0.04153840, 0.07490902, -0.05558699, -0.05019048, 0.14112939, 0.00835781, 0.06466263, -0.08956277, -0.08819138, -0.02826023, -0.03223965, -0.11891443, 0.08542807, 0.07906072, -0.36651361, 0.01186899, 0.01271747, -0.08446717, 0.08323017, -0.07612818, 0.00107019, 0.05104696, 0.06893237, 0.01099600, -0.56727886, -0.00726393, 0.04517514, 0.01547860, -0.07116699, -0.08045961, 0.10338370, -0.15513520, 0.03846678, -0.23777282, -0.19155210, 0.11231673, -0.01520755, -0.01386755, 0.03601325, -0.11160006, -0.00203027, -0.00949992, 0.03124927, -0.03713817, -0.11590421, -0.23165719, 0.14545219, -0.07165078, 0.03652043, -0.03175946, -0.15156955, 0.00475186, -0.03185067, -0.00081150, -0.08071769, -0.02643451, -0.05678965, -0.06909642, -0.02986551, -0.05418511, -0.24829809, 0.07355267, 0.01880660, -0.07070559, 0.06443077, -0.14477900, -0.13682790, 0.09710795, 0.32660165, -0.05981882, 0.07380702, 0.05367544, 0.07461095, 0.11031781, 0.06298187, -0.03587112, 0.06563432, -0.06086331, 0.02705065, -0.03696052, -0.05938645, -0.05114892, -0.09222540, 0.06504323, 0.04175270, 0.00058599, 0.07929746, 0.08663715, 0.03774550, 0.09251458, -0.01474402, 0.04970324, -0.08309580, -0.88730592, -0.07765176, 0.17587721, 0.05799403, -0.02213708, 0.06611031, 0.02216718, 0.12233455, -0.43274635, -0.08532976, 0.07812671, 0.39919236, 0.15447837, -0.08259863, 0.03115157, 0.00722506, 0.03153500, 0.15901276, -0.00566175, 0.19829519, -0.12872480, 0.09766433, -0.18884073, 0.09149228, -0.06458289, 0.15729366, -0.01042493, 0.34416205, 0.15026326, 0.01651244, -0.04577773, -0.18357968, -0.17362915, 0.10124607, 0.06815474, -0.40547991, -0.01354351, 0.01058114, 0.02112199, 0.18706790, -0.26268220, -0.11042136, -0.05304921, -0.31696323, -0.11096197, -0.19462608, 0.05885586, 0.04935971, -0.24306551, 0.16674568, 0.16893840, -0.00654663, -0.02517773, 0.19717719, -0.43061617, -0.33634636, -0.06011076, -0.17409623, -0.02946184, -0.03109937, 0.08196329, -0.02995335, -0.41797096, 0.14965475, -0.05062106, 0.17230794, -0.18020722, 0.14718634, 0.05809113, 0.20348366, 0.42268318, 0.21494086, -0.68385816, 0.42675871, 0.03510814, 0.05837183, -0.13391803, -0.35512573, -0.04367829, 0.01068502, -0.03120971, 0.02120089, 0.03219804, -0.15051712, 0.02732386, 0.00488878, 0.22628257, 0.10289841, 0.16688441, 0.05247929, 0.16857174, -0.01210706, 0.09978940, 0.08601973, -0.14659843, 0.12082683, -0.14971395, 0.47487223, -0.24447690, -0.50152916, -1.01788628, 0.03165257, 0.09939529, 0.56981498, -0.14821158, -0.27814868, -1.16882551, 0.12219315, -0.04108255, -0.08598980, 0.17719163, 0.00439286, -0.36088899, -0.03550921, 0.20042360, -0.02984371, -0.08374875, -0.10679297, -0.01580541, 0.15085213, -0.40840945, 0.09109525, 0.04056960, 0.19548331, 0.00733860, -0.40030029, -0.29271033, -0.06906912, -0.16735725, -0.01415511, -0.41622812, 0.04120990, 0.03393966, -0.51255161, 0.00295881, 0.03589348, -0.10101087, 0.06687888, -0.09783719, 0.12997594, 0.18994690, -0.15756698, -0.24616499, 0.01004025, -0.30938208, -0.17315954, 0.06660577, -0.15811083, 0.01090722, -0.25465906, -0.22751339, -0.20214123, 0.04643214, 0.06719244, 0.06511053, 0.11481038, -0.03266619, 0.03093764, 0.07234303, 0.03232510, -0.06204101, -0.08463854, -0.01303000, 0.13244821, -0.19954824, -0.13437985, 0.21242362, -0.07577920, 0.00684598, 0.00763790, -0.05537317, 0.07381003, -0.05309014, -0.09185892, 0.08198343, -0.00891085, 0.02678731, -0.21708091, 0.07335756, 0.00157481, 0.15388918, -0.05157448, 0.02772109, 0.05971080, -0.00823980, -0.20819816, 0.10841779, 0.04038993, -0.37209120, 0.14707862, -0.25808147, 0.09719414, -0.10038402, 0.21392839, -0.02043373, -0.12272287, -0.14387529, -0.06451744, 0.05332994, 0.12624195, -0.00365853, -0.05705590, -0.00441958, 0.08885624, 0.06254215, 0.14981215, -0.36616996, 0.32025117, 0.00196342, 0.15186319, 0.17574403, -0.21939024, -0.36633095, 0.08142473, -0.07650907, 0.20694029, 0.05071306, -0.36919084, 0.13262929, 0.08114904, -0.05131347, 0.10990053, -0.01177742, 0.18980815, -0.04417072, -0.07625091, -0.02276724, 0.11358679, 0.04183368, -0.06656437, 0.05067258, -0.02619188, 0.04428065, -0.12139672, -0.08127544, -1.48267055, -0.07485969, 0.13155083, 0.08844159, 0.08082230, 0.01980301, 0.12579477, 0.10148116, 0.07019851, 0.08323209, 0.01354019, -0.02045381, 0.06338851, 0.11883471, -0.02097047, 0.00334330, -0.17177124, -0.10996060, 0.12348944, 0.16949920, 0.03524688, -0.30951419, 0.02454336, -0.03456214, 0.09881386, -0.09189677, -0.02531951, -0.04137780, 0.05735278, -0.18668771, 0.05715583, -0.00411873, 0.16738920, 0.13796216, -0.06773336, -0.04149956, -0.00772726, 0.01076598, 0.05187640, 0.01108949, 0.01276434, 0.06836861, 0.05498336, -0.09168493, 0.02141919, 0.05215523, -0.84618556, 0.06134662, -0.00770428, 0.03006102, -0.10913882, 0.08551747, 0.00202961, -0.10874980, 0.06107340, -0.00818303, -0.00648303, 0.06767034, -0.27188104, 0.22096655, -0.15177396, 0.02131279, 0.01339892, -1.55907035, 0.03559052, -0.04754179, 0.03428812, 0.01282311, 0.06261070, -0.02173171, -0.95269465, -0.16429539, 0.00185718, 0.06767537, -0.31570390, -0.25060645, -0.00290183, -0.04144357, -0.01291392, 0.10607329, -0.32492796, 0.15116489, 0.13314527, -0.03792528, 0.06703234, -0.06102980, 0.17694026, -0.12930906, -0.20037690, -0.13999701, -0.02516771, 0.12214514, 0.03930209, 0.04213092, -0.21142213, 0.00059576, 0.10412339, 0.03168236, 0.05511168, 0.00261473, 0.16546711, -1.83875418, -0.15885822, 0.11996651, -0.08482867, -0.02799102, -0.04832501, -0.21085307, -0.00714215, 0.06478262, -0.16707002, 0.04381482, 0.02937130, 0.04369480, -0.07106500, -0.03687116, 0.17602228, 0.06000340, -0.13414615, 0.08221811, 0.04298985, -0.40863383, -0.22672786, -0.04177987, -0.01892220, -0.12391448, 0.02230975, -0.20510316, 0.14090759, 0.10602155, -0.03186022, -0.05814654, 0.04223064, -0.07138901, 0.06097369, 0.10417698, -0.46366563, 0.03644125, 0.05110024, 0.01244197, -0.04901645, -0.03814854, -0.11543035, 0.07409560, 0.14536522, -0.06911930, 0.09331708, 0.02196087, 0.13106602, -0.17542295, -0.09982217, 0.08870000, 0.05560575, 0.01530581, -0.01280518, -0.06256137, -0.03501296, 0.06222068, -0.07334481, 0.07405820, 0.01469572, -0.10072251, 0.00472290, -0.11201117, 0.08723522, 0.00485409, 0.17217381, -0.01628068, 0.05313887, 0.10278019, -0.10245030, 0.06763420, -0.03965326, 0.05669466, -0.21576451, -0.06867644, -0.11095355, -0.09519287, -0.15576516, 0.02539870, -0.13150458, 0.11375360, 0.05393061, 0.07275344, -0.10736325, -0.15301974, 0.04812353, 0.00673041, -0.05119905, -0.01972714, -0.03207312, -0.22565766, -0.26887664, 0.05379604, 0.02702222, 0.02103756, -0.04549783, 0.04816883, -0.20473301, 0.08225293, 0.04345695, 0.03970288, 0.24025767, -0.20653047, -0.00872150, -0.00680546, 0.02541224, -0.11102286, -0.27010658, -0.05095609, 0.00300066, -0.13138960, -0.05314163, -0.23624861, 0.19650008, -0.12904260, -0.06202835, -0.00817221, -0.10992119, 0.21920276, -0.02910616, -0.06358345, 0.11878841, -0.01586215, 0.13154617, 0.03074996, -0.09022988, -0.09177344, 0.04394885, -0.08588795, 0.04219233, -0.11870182, -0.11187553, -0.02759222, -0.11452141, 0.11878683, -0.00434709, 0.04263086, -0.05658779, -0.05319365, -0.06133639, -0.09873170, -0.05660693, -0.00492850, -0.29510012, -0.01666161, -0.03653065, -0.12543069, -0.11010155, -0.09645619, -0.15030111, 0.03278217, 0.17864192, -0.10154262, 0.00533586, 0.10184786, 0.12832417, -0.01391953, -0.13076054, 0.01386771, -0.02331145, -0.05553543, -0.03236570, 0.05891114, -0.06119430, -0.08685716, 0.00120938, 0.05407803, -0.00464069, 0.00084489, -0.02376491, 0.05018431, 0.07769503, -0.08567428, 0.01555959, -0.04662032, -0.00053695, 0.06757607, -0.05316157, -0.00924327, -0.07413545, -0.07415411, 0.03041212, -0.11744954, 0.00014229, -0.01270252, 0.05441806, -0.10939079, 0.01495181, -0.06081768, 0.00686752, 0.02100893, -0.00983839, -0.05177033, -0.08203699, -0.03489852, -0.06647540, -0.07419014, -0.06831470, -0.10546757, -0.02773677, -0.02341163, 0.00755943, 0.00062041, -0.04226898, -0.04315169, -0.04974892, -0.07807358, 0.02233769, 0.02630341, -0.04284575, -0.08283389, 0.00788376, 0.03935766, -0.05082827, 0.00526874, 0.02049814, -0.04741602, 0.02396402, 0.01159917, -0.09020229, 0.02566106, 0.05335452, 0.04156746, -0.05503718, -0.12129825, 0.01066309, -0.01084381, -0.01993515, -0.03481706, -0.02417541, 0.03805253, 0.03921891, 0.01137157, -0.05866259, -0.06811481, 0.04608359, -0.02322504, -0.00947712, -0.08084498, 0.00262487, -0.00989789, -0.03452008, -0.01964346, 0.04102425, -0.01044122, 0.04353501, 0.04488537, 0.03164336, 0.01161698, -0.07761884, -0.12477691, -0.04688298, -0.06531339, -0.08032258, -0.06581474, -0.04416014, 0.00934897, 0.05422492, -0.07296490, -0.00191513, -0.08219932, 0.04340232, -0.02475755, -0.08732548, -0.09262489, -0.05127373, -0.02864465, 0.06880841, -0.08944260, -0.09654116, -0.07207143, 0.03163293, -0.08074373, -0.08123108, 0.07535528, 0.07472723, -0.02186180, -0.08493330, 0.00828176, -0.05020154, -0.03553098, 0.00300314, -0.07408746, -0.05972306, 0.00834774, 0.05439201, -0.06181147, -0.00126307, 0.01014980, -0.04834976, -0.02044509, 0.05451238, -0.05765880, -0.00578006, 0.03961231, 0.00569879, 0.04473310, -0.05356089, -0.01220719, -0.07464539, -0.12792216, -0.08173431, 0.03278733, -0.11371936, 0.11822661, -0.06244054, -0.24426463, 0.04671832, -0.02224214, 0.26046112, 0.03455190, -0.30488640, -0.05378614, 0.05199189, -0.11849384, 0.02853649, 0.09656189, 0.00900375, -0.06230043, 0.13432306, 0.01242826, 0.02729297, 0.01039228, -0.04520896, -0.15667310, 0.09404139, -0.06772386, -0.07603896, -0.03953283, -0.01405076, -0.06672801, 0.01135054, 0.13104333, 0.02177667, 0.15006748, 0.03120993, -0.12058096, -0.09073687, -0.02841827, 0.02853340, -0.03608984, 0.06893072, 0.00338333, -0.12343461, 0.01716396, 0.00842746, 0.35647380, 0.02793942, -0.13800892, 0.00880251, 0.23673078, 0.04639589, 0.07136962, 0.10133798, -0.11994519, -0.06661183, -0.13764402, -0.06361106, 0.05581956, 0.02540466, -0.04772957, -0.03477816, -0.07397880, -0.04599664, 0.02482980, -0.00480139, -0.00337916, 0.01803517, 0.09566568, -0.20324825, 0.02255676, -0.06983647, 0.10434555, 0.13774315, -0.15884423, -0.15345168, 0.06917502, -0.14642230, -0.01578929, 0.07821478, 0.00194932, 0.05562913, 0.12705167, 0.09181037, 0.20016783, 0.01424973, -0.00679735, -0.07321297, -0.13558368, -0.08928250, 0.01219465, -0.00916261, 0.01753396, 0.05642327, 0.05009051, 0.05367539, -0.06768397, -0.01833289, -0.11130055, -0.01990663, -0.18431556, 0.15936463, -0.09820433, -0.08035532, -0.02217191, 0.03900365, 0.00462703, -0.17870837, 0.07489076, 0.08856720, -0.07392333, 0.01469222, -0.11960005, -0.04256332, -0.02981089, -0.13386627, 0.07354959, -0.02000339, 0.03178968, 0.14871708, 0.06116789, 0.04134500, -0.04549811, -0.07705077, -0.04664277, 0.08106868, -0.11954512, -0.01224413, 0.05054105, -0.03179157, -0.01668403, -0.13301568, -0.22955820, -0.00240599, 0.02189055, -0.02914764, -0.10345303, -0.10941787, 0.11641171, -0.08756752, -0.26617813, 0.03064876, -0.07415913, 0.01975347, -0.04690617, -0.15746833, -0.05969581, 0.04419702, -0.05890962, -0.06019045, -0.04119527, -0.09533849, -0.02795338, 0.06658280, 0.06825563, 0.01822646, 0.03904158, -0.03784264, 0.06164823, -0.01085350, 0.13462484, 0.01301421, 0.13083622, 0.16003047, -0.18506345, -0.01184208, -0.09522142, -0.03857040, 0.02344307, -0.24157274, 0.13192922, 0.04113200, 0.08722206, 0.02840037, -0.16803005, -0.11411571, -0.01115481, -0.02451788, 0.01492560, -0.01304204, -0.01244838, -0.12528865, 0.05753331, -0.00534163, 0.02309689, -0.27972469, 0.07321320, 0.01724077, 0.03487253, -0.06865242, 0.03841827, -0.12935212, 0.00971969, 0.00833937, -0.05069834, -0.00097987, -0.04322803, 0.10486795, -0.04874638, -0.01623364, 0.00700121, -0.08008033, 0.13195977, 0.00803305, -0.01320819, 0.00706957, -0.03266211, -0.14194766, -0.00685195, 0.17195576, -0.04846346, -0.02344778, -0.33969265, 0.13181576, 0.06933720, -0.14405400, -0.13749054, -0.16594273, -0.18435417, 0.07998813, 0.03417976, -0.00562612, 0.02064836, -0.04394248, -0.17132449, -0.00512475, 0.05702385, 0.13775760, -0.03722182, -0.07263259, 0.00338062, -0.06591047, -0.12756142, 0.06943110, 0.00994888, 0.21360199, 0.00631647, 0.07303136, -0.27565154, 0.03099074, -0.05530876, -0.01446127, -0.15019104, 0.00802697, -0.04858698, 0.05707570, 0.03250302, 0.02310814, 0.11341022, -0.01982710, 0.03741861, -0.03979477, 0.01915385, -0.00036832, -0.06940096, 0.01387729, 0.01336618, -0.04419308, 0.14151116, -0.00357808, 0.31832168, -0.42181063, 0.07789189, 0.03812690, -0.08186629, -0.55434507, 0.09363363, 0.12608236, 0.04895713, 0.34503576, -0.04406679, -0.14002334, -0.04391740, 0.13870411, 0.29294312, 0.12849139, 0.17857482, -0.41130009, -0.04595959, -0.29744330, -0.05688276, 0.53921700, -0.00335571, 0.24906176, 0.06377704, -0.49146906, -0.01233323, -0.10366865, 0.09662503, -0.22867696, -0.04748167, -0.00289253, -0.27883303, -0.42900845, 0.11163314, -0.03397774, 0.13214231, 0.17130035, 0.02237511, 0.32556358, -0.09027185, -0.05438563, -2.28375673, -0.11006203, 0.10108066, -0.21998066, 0.01745891, -0.01708508, 0.02655516, 0.32350150, 0.10744321, -0.01910939, 0.21018572, -0.50760972, -0.36766392, 0.07283980, -0.19222991, -0.01005081, -0.64997989, 0.31791639, 0.27267188, -0.13074742, 0.01867380, -0.16925281, 0.18540685, -0.02228432, 0.21970512, -0.03534143, -0.24899751, 0.14337453, -0.78489947, -0.07565494, -0.01849505, -0.31494004, -0.04251540, -0.09994454, 0.01636700, 0.06515420, 0.16785988, 0.03029583, -0.41424564, -0.34516343, -0.35982290, -0.04650920, 0.11458401, 0.04777223, -0.94921571, -0.04241558, -0.17096126, -0.01306661, -0.05550853, 0.30794078, 0.15448129, -0.13351636, 0.09156512, 0.00933124, -0.07497675, 0.05885241, 0.06109939, 0.07243075, 0.27267727, 0.17067227, -0.10037789, 0.11043794, 0.18738589, -0.15203625, -0.21732840, 0.29518104, -0.07525568, -0.12372952, 0.08415700, -0.03414099, -0.08191890, -0.03468011, -0.11982967, 0.23676485, 0.05083619, 0.09973049, 0.07465062, -0.11327124, 0.00707338, 0.20174365, 0.07332578, -0.57879329, -0.04903101, 0.09702929, -0.07857579, 0.03271575, -0.27049464, 0.24932826, -0.02682323, -0.02661040, -0.01202000, -0.10314605, 0.00938586, -0.14721036, -0.00606854, 0.09051021, -0.03382718, -0.28597501, 0.03089242, 0.03621241, 0.02221975, 0.04912685, -0.07689532, 0.01929457, 0.11302616, -0.11615561, 0.10005564, -0.20112379, -0.08960720, -0.28493536, -0.01653583, 0.10154417, 0.06593975, 0.01030966, -0.18717691, -0.13952370, 0.04113793, -0.06472431, 0.03498724, 0.02059981, -0.30937272, 0.10695577, -0.04246122, -0.08901535, 0.08146944, 0.06819651, 0.03083824, 0.09296835, 0.42376775, -0.12929673, 0.06734584, 0.24310666, -0.03006596, 0.00867320, 0.06589791, -0.24574880, -0.27863392, -0.14582530, -0.17273752, -0.10974975, 0.06578893, 0.11458885, 0.00138983, -0.09397706, 0.01728384, -0.15225229, -0.17645797, -0.14322908, -0.14026046, 0.01738689, -0.22828804, 0.02837210, -0.09903038, -0.03174889, 0.04223121, -0.17153564, -0.00810252, 0.02496525, -0.01861072, -0.17384355, 0.03325524, -0.67965221, 0.08638660, 0.13993819, -0.02173396, -0.70858914, 0.00823818, 0.02657284, -0.16608956, 0.00776968, -0.06735554, 0.01796210, -0.02117160, 0.13297500, -0.32984027, -0.08519410, 0.10968929, 0.02328628, -0.22099918, -0.03027958, 0.04434119, -0.18585776, 0.07956972, -0.08304060, 0.04399388, -0.18161458, -0.16492565, -0.10125959, -0.10326583, -0.07628055, -0.11262795, 0.13919388, -0.04222627, 0.06283817, -0.07849324, -0.00023882, -0.05508227, 0.02967739, -0.11997402, 0.02452963, -0.38792419, -0.17713219, -0.00635933, -0.03826555, -0.05959119, 0.00619762, 0.01660642, -0.13161722, 0.07741877, -0.06011526, -0.07375317, 0.01862163, 0.15778776, 0.04464485, -0.07518219, 0.03628664, 0.03783482, 0.04429672, 0.01364879, 0.05087559, 0.08225363, -0.08610842, 0.05640711, -0.09074406, -0.00821891, 0.01372281, 0.00036335, -0.09084469, -0.09591699, 0.01479216, -0.07891181, -0.00837216, -0.03551948, 0.01823179, -0.01630907, 0.01840565, 0.00900305, -0.01546897, -0.05823806, -0.00463524, 0.01904951, 0.01876227, -0.04125942, -0.04500971, 0.08254896, -0.03454509, -0.02848521, -0.06902970, 0.03424972, -0.00939339, -0.03591574, 0.00214229, -0.03966383, -0.08866612, -0.04842773, 0.06187615, 0.01401890, -0.02606122, -0.04475106, -0.01388300, 0.04021007, 0.06623373, 0.05118206, 0.00057403, -0.11270887, 0.03830399, 0.05342536, -0.08546852, -0.02314286, -0.04246342, 0.05401127, -0.08159185, 0.07599102, -0.01774562, -0.07896668, 0.07809352, -0.00510279, 0.00336177, -0.02971186, -0.03929648, -0.01692346, 0.00577796, -0.07374512, 0.04524449, -0.03318202, -0.03211319, -0.06872815, -0.01247780, -0.08535123, 0.01452713, -0.09587639, -0.02755635, -0.03674615, -0.02920967, -0.06005524, -0.13717437, -0.09507645, 0.04748428, -0.08645216, -0.04020416, -0.05974449, 0.02860016, -0.04713395, -0.07023487, 0.08980758, -0.03453883, 0.03718317, -0.03573791, 0.02905181, -0.10802926, 0.07712494, -0.03611912, -0.01697756, -0.09397417, -0.09061637, 0.05801958, -0.05642999, -0.05559782, -0.08609419, 0.06105575, 0.05191718, -0.07478569, -0.06208291, 0.09401006, 0.03834179, -0.06099174, -0.01545539, -0.02289169, -0.04700838, -0.04780518, -0.00887926, 0.01045462, -0.01801279, -0.03934748, -0.05849867, 0.05979292, 0.05803901, -0.09427775, -0.04595318, 0.07235149, -0.07945319, -0.08240014, 0.29823864, 0.02574716, -0.03116912, 0.04525291, 0.00381387, 0.19047078, -0.11985400, -0.27597830, 0.16456115, 0.13510650, 0.01289566, -0.19422263, 0.08393747, -0.04510646, -0.00718676, 0.01891783, 0.09627187, -0.04846786, -0.03354202, 0.06298639, -0.07520440, 0.08997473, -0.00169836, -0.03373081, -0.09986225, 0.00448600, 0.00564877, -0.12676704, 0.16903108, 0.07502788, 0.07923518, -1.13153577, -0.24009605, 0.14142606, 0.05199795, 0.02446163, -0.01027298, 0.12212674, 0.04261261, -0.28087378, -0.02061737, 0.04262462, 0.19904093, 0.32476950, -0.00959471, -1.00301075, -0.01089963, -0.65852469, -0.00359952, 0.20854382, -0.00520576, 0.11120514, -0.01053545, -0.02796041, -0.20520906, -0.09924495, 0.00077548, -0.04424163, -0.07973508, 0.00244920, 0.14401114, -0.02071677, 0.01616587, 0.07337429, 0.23837063, -0.37362769, 0.14075916, -1.46318996, -0.00221753, 0.07282261, -0.49849787, -0.06909501, 0.00440074, -0.46417773, 0.07089689, 0.00644481, -0.15096654, 0.00343415, 0.16235746, -0.05363257, 0.24621536, 0.15622799, 0.00172444, -0.00838062, -0.02899003, 0.13380952, 0.02522250, -0.02543258, -0.50652051, 0.02988626, -0.03032881, 0.12055746, -0.03248919, -0.01597050, 0.00595555, 0.04720785, -0.06149742, 0.09472860, 0.01628426, -0.09982934, 0.25628507, 0.18083927, 0.04763959, -0.44743472, 0.04685104, 0.10536813, -0.02334876, 0.06757685, -0.05588987, 0.05990867, -0.00979388, -0.16559492, -0.12310459, -0.06512639, 0.72202045, 0.16985196, 0.02266553, 0.00535597, 0.08975033, -0.11441079, -0.00937380, 0.00706180, -0.04553575, -0.45544210, -0.06302366, 0.11183213, 0.00908574, -0.07747137, -0.04755725, 0.05172503, -0.07936074, 0.02099194, 0.07856528, -0.01430322, -0.07268585, 0.00412433, 0.02966467, 0.03876476, -0.04793037, -0.04174262, -0.02008699, 0.02519528, -0.05159655, -0.03145169, 0.01636792, -0.01815077, 0.01280637, 0.04208188, -0.08285883, 0.04532091, 0.07415566, 0.05795073, -0.06825805, -0.01422608, -0.09519704, -0.08475231, -0.00665112, 0.02786879, -0.06751597, -0.03530451, -0.02438124, -0.00097125, -0.06912495, 0.07317270, -0.01493372, -0.06718613, 0.03496191, 0.01744690, -0.05606487, -0.03269584, 0.08488013, -0.04144096, -0.06773141, 0.03741629, 0.03590187, 0.06640356, -0.04335434, -0.02061811, 0.01136914, -0.01514790, 0.01510286, 0.05656013, -0.05971762, 0.01238705, -0.05672552, 0.00039722, -0.07706089, -0.01106459, -0.03150168, -0.10180570, 0.04128100, -0.08999509, 0.04979553, 0.01817093, -0.02204065, 0.03839621, 0.01170337, 0.07766503, 0.03894510, 0.04686758, -0.05942914, -0.09586582, -0.00330652, -0.04916180, -0.02959677, -0.04636540, 0.02588883, -0.00303494, -0.07957149, -0.04197214, 0.04645765, -0.09885079, -0.05253018, 0.06322581, 0.01437483, -0.06703769, -0.01532205, 0.04006931, 0.07537975, 0.07217046, -0.08828172, 0.00549689, -0.01411139, 0.01270917, -0.03273346, -0.00583019, 0.02938202, 0.05097715, -0.00986886, -0.09310852, 0.05315739, -0.01539456, -0.00072667, -0.06579155, 0.07497464, -0.04267732, 0.00074549, 0.02372639, -0.00842538, -0.06923050, -0.09454335, -0.06057316, 0.00080975, -0.02646902, 0.07211003, 0.05209405, 0.03270031, 0.04998233, 0.02026252, -0.08770029, -0.01366387, 0.04870023, -0.04304402, 0.02502248, -0.07065617, -0.03761625, -0.77524447, 0.10403521, -0.18830597, 0.04290235, -0.03926434, -0.04005091, 0.13551302, -0.08704904, -0.50481039, 0.03054010, 0.07241492, -0.21841235, 0.00904611, 0.00985178, 0.03333748, -0.25063261, -0.10647681, 0.05755064, 0.02913223, -0.03677194, -0.02192449, 0.05085079, 0.07090502, -0.08904777, 0.16280268, 0.25008884, -0.07344595, -0.01536602, -0.09813895, 0.28928480, 0.13427593, -0.00644778, 0.16782656, 0.03689400, -0.14716341, 0.07683559, 0.00223494, 0.04664657, -0.05559481, -0.03524662, 0.14558555, -0.02614390, 0.03886081, 0.12611167, 0.25479937, 0.17899376, -0.54579026, -0.12317514, 0.04924533, 0.06304630, -0.13352351, 0.20617503, -0.18035662, -0.13752715, -0.13007003, 0.05239202, 0.00444312, 0.20587057, 0.11600088, -0.06977278, -0.09876065, -0.04991604, 0.01876483, 0.08556335, -0.70937508, -0.14668877, -0.11714555, 0.01856837, -0.09848784, -0.19379355, -0.16272745, -0.11662469, 0.07218224, -0.07318770, -0.04274858, -0.02853757, -0.07741561, 0.04404205, -0.00552999, -0.11301573, 0.01096842, -0.06007029, -0.09712961, 0.12279344, -0.00373364, 0.06553281, -0.17028598, -0.08615743, -0.09857392, 0.01386068, 0.04179404, -0.06448077, -0.02267111, -0.06114805, 0.16791970, 0.02481943, 0.22378907, -0.32927546, 0.13214861, -0.05237955, -0.01404895, -0.20868883, -0.02222862, -0.42552018, -0.38335600, -0.05061197, 0.31983170, -0.10594502, 0.08763454, -0.00876152, 0.04619171, 0.09726015, 0.00821327, -0.08687814, -0.16278997, -0.08456988, -0.00429631, 0.15654039, 0.03052939, 0.02638973, 0.10011788, -0.24289045, -0.04648675, -0.12996519, 0.13430713, -0.31023431, 0.09327205, 0.02947885, -0.96599728, 0.06540101, -0.16083497, 0.06716409, 0.01748194, -0.00350295, 0.06253234, 0.03991991, -0.52269721, 0.12538937, 0.18729651, -0.07891492, -0.01606150, 0.07916394, 0.04387038, 0.15407977, 0.08207051, 0.00494060, -0.00848409, -0.01271818, 0.03528831, -0.05464363, 0.16367988, -0.01534371, 0.14091921, 0.10018034, -0.05028594, -0.15504347, -0.05918406, 0.04940528, -0.03536878, 0.19655560, 0.18182690, 0.06611304, 0.02779305, 0.12814677, -0.00798564, 0.07706374, -0.11321872, -0.09375434, 0.00227110, -0.01355601, 0.09200233, 0.21350636, 0.10199841, -0.00491993, -0.29558894, -0.04715645, 0.22777495, -0.17261946, -0.14586259, 0.18458045, -0.11513080, -0.04909024, -0.11813035, 0.06300731, 0.02889512, 0.17515169, -0.09897263, -0.40091506, 0.00817350, 0.04406182, 0.04529883, 0.01366852, -0.17331742, -0.32240978, -0.46386942, -0.04672145, 0.00991586, -0.03510550, -0.29738033, -0.01417053, -0.03281757, -0.23227987, 0.06043908, 0.01624306, 0.08312537, 0.11357275, 0.11962426, 0.01025311, 0.03003411, -0.06804354, -0.01643030, 0.10332786, 0.07648341, 0.02275972, -0.07699924, -0.00644220, -0.14839627, -0.06073588, 0.08876907, 0.04994672, 0.10658310, -0.02493508, 0.07345697, 0.02257335, 0.16704635, -0.14386292, -0.01187664, -0.13411385, -0.13736498, -0.04397089, -0.04157536, -0.55703032, -0.44003698, 0.03497135, 0.10928483, -0.06690310, 0.03879464, 0.04383873, -0.02748096, 0.21520136, 0.04491726, -0.04020971, -0.01772591, -0.07808924, -0.07042759, 0.09659893, -0.03659873, -0.02891310, -0.00094257, -0.22986633, -0.11346754, 0.01620860, 0.05659594, -0.30121493, 0.09173993, 0.00738885, 0.19748771, -0.02650140, 0.22073406, -0.03628157, 0.08486506, -0.10146043, -0.03031421, 0.24686635, 0.23346211, -0.04865405, 0.03295324, -0.03694569, 0.05395221, 0.08292396, 0.07540225, -0.13954918, 0.03888164, 0.06891342, 0.17691754, 0.17446934, 0.09407995, 0.02674771, 0.12584110, 0.07379146, -0.05179843, -0.00089303, 0.03087975, 0.08522909, -0.11204977, -0.00393991, 0.01261144, -0.01153389, 0.26886043, 0.05966210, 0.16121337, -0.20690340, 0.11285108, 0.06427485, -0.11613283, -0.00521400, -0.15246779, -0.35876435, -0.10904367, -0.26758996, 0.16401035, 0.08604222, -0.35504153, 0.07368180, -0.13980924, 0.02303649, 0.07855646, 0.04510501, 0.18953733, 0.07408309, -0.07539353, -0.16337591, 0.05961361, 0.12612979, 0.00350316, 0.12265824, 0.10607129, 0.07387358, 0.11614538, 0.01867608, 0.11671943, -0.00573106, -0.00589427, 0.07330776, -0.03854954, -0.13954517, 0.03337840, -0.04273308, -0.11132199, 0.11788683, -0.04525163, 0.15709518, 0.07025341, -0.15589625, -0.14402264, 0.15613995, -0.15218903, 0.08757794, -0.25263935, -0.00007347, 0.17310907, -0.10689065, 0.01373890, 0.05854644, 0.01971938, 0.04805068, -0.19114813, 0.05090490, 0.10582999, 0.03617094, 0.07436605, -0.12734924, 0.18836930, -0.22424307, -0.04553751, -0.03073881, 0.16153133, 0.12042840, 0.07953905, 0.46100190, -0.05816520, 0.01791463, 0.08789187, 0.05938005, 0.06549858, 0.05843512, -0.02706757, 0.02252677, 0.02934404, -0.04804098, 0.00455148, -0.38232389, 0.01953925, 0.02454328, -0.07347310, -0.00249301, 0.05043995, 0.09934483, 0.02412418, -0.11391903, -0.06774330, 0.10876096, -0.11955479, 0.13299580, 0.12495274, -0.11134175, -0.03301861, 0.00926505, 0.06674584, 0.15422902, 0.09201435, 0.14555077, 0.05908053, -0.05104291, -0.11085372, 0.00864679, -0.05941548, -0.11297979, -0.34005210, -0.05521244, -0.16498610, -0.13122079, -0.09173650, -0.05452630, 0.05004569, -0.05827001, -0.00052032, -0.00982927, 0.02767218, -0.03574308, 0.03131920, 0.04644517, -0.11191761, 0.03829915, -0.37385914, 0.01547837, 0.01239927, 0.03352862, -0.06376245, 0.03592646, -0.16567385, -0.15445453, -0.02116596, -0.11792052, 0.13610160, 0.01986277, -0.09785014, -0.13765384, 0.17030063, 0.00315411, 0.01717857, -0.10544062, 0.06553095, 0.11214884, -0.19319732, -0.00416957, -0.34463397, 0.04362447, 0.03426576, 0.00124095, 0.01985851, 0.07622469, 0.05621080, 0.04797629, -0.22134708, -0.10360771, 0.06853407, 0.02739778, 0.03090017, 0.16509171, 0.20220166, -0.28062984, 0.05769600, -0.05470749, -0.05592562, 0.07022738, 0.18748344, -0.12805668, 0.12961873, -0.00229498, 0.13901399, 0.07035654, -0.16786470, -0.06572951, -0.08134219, -0.00527116, -0.09550576, -0.08009310, -0.09764380, -0.03039489, -0.09552528, -0.04364434, 0.01914908, -0.05754498, 0.12326186, -0.07065798, -0.17078635, -0.07379922, 0.02146942, -0.21720634, 0.12646340, 0.06751718, -0.11053367, 0.09024942, 0.07101040, -0.07784068, -0.03971469, 0.15318725, 0.17264909, 0.04289796, -0.01196394, 0.24342069, -0.07581700, -0.12749895, 0.08740601, -0.01441212, 0.12803529, 0.14139205, 0.01072965, 0.06317610, -0.33216196, 0.01246563, -0.01527174, -0.08864330, 0.11988241, -0.02476832, 0.09679378, -0.26955453, 0.09484063, 0.08321428, 0.04604836, 0.02295990, 0.15548670, -0.05686011, -0.11383459, -0.00139734, -0.02681326, 0.06514295, -0.24661928, -1.07204580, -0.14869764, 0.06083424, 0.05133168, 0.07187572, 0.01938701, 0.09882963, -0.13410622, -0.11858113, -0.02659239, 0.00782090, -0.03438810, -0.27967247, -0.00365325, -0.14470835, -0.40058178, -0.18967727, 0.09260682, -0.14806622, 0.05491740, -1.14202273, -0.12114783, 0.08412691, 0.30508086, 0.04491550, -0.08104647, 0.02422772, -0.00583082, 0.13900413, 0.00067134, 0.00476643, 0.31763405, 0.05982108, 0.08331285, 0.01720742, -0.20835121, 0.14514792, -0.10799486, 0.09513569, -0.06710389, -0.04044099, -0.05421174, -0.01677143, -0.16954105, -0.76862782, -0.06976001, 0.04848560, 0.03180333, 0.18060146, -0.23846622, -0.08203197, -0.06809041, 0.14108850, 0.04231008, 0.14990953, -0.04968370, -0.06742662, 0.19675843, 0.02819103, -0.04134563, 0.00807856, -0.24410713, -0.07007158, -0.04276181, 0.02711212, -0.24813411, -0.05562761, -0.07943776, -0.35130584, -0.22029164, 0.02969558, 0.10870340, -0.11477926, -0.01035298, 0.16989814, 0.06725759, -0.05085548, -0.23303968, 0.15807177, 0.03569911, 0.22735086, -0.03024091, -0.04682208, 0.14274621, 0.03737406, -0.05454097, 0.02033205, -0.01870299, -0.00667964, -0.04339733, -0.16748969, 0.10413425, 0.02687875, -0.04164205, 0.12089983, 0.10581809, -0.04903058, 0.16995990, -0.07035746, -0.26728970, -0.04432695, -0.28946665, 0.01531827, -0.20262468, -0.22095957, -0.17513773, -0.17645186, -0.01715182, -0.12073041, 0.08220876, -0.06759223, -0.06287175, 0.00919876, 0.08348041, 0.10845219, 0.02931233, 0.08004248, 0.03295030, 0.09355329, -0.39295322, -0.27880412, -0.03236292, 0.07409142, 0.15735319, 0.00475601, 0.13034862, -0.04778979, -0.03151051, 0.15128247, 0.22771645, -0.02621839, -0.00354053, 0.17747559, -0.27091202, 0.04875244, -0.16779128, -0.12584375, -0.31361115, 0.09742857, 0.08167937, 0.03694634, 0.09122721, -0.14210838, -0.02668780, -0.29617354, 0.03266466, -0.09850404, 0.05155080, -0.22025128, -0.33605343, 0.08433690, -0.22384886, 0.03063786, 0.10365251, 0.06199404, -0.10033862, -0.05332660, -0.11052183, -0.02372191, -0.23427068, -0.15722047, 0.05404319, 0.00467722, -1.52353990, -0.00835734, 0.12883295, 0.24061193, -0.11933576, 0.10434629, -0.09025909, -0.05183006, -0.18715130, -0.10403857, -0.03650509, 0.03772016, 0.12969832, 0.04535549, -0.01980709, 0.03014505, -0.02881697, 0.07138745, -0.18486387, -0.15898769, 0.21027009, 0.13322161, -0.24786602, 0.25735515, -0.17118520, 0.05100256, 0.18460320, -0.36894825, -0.05168923, 0.11916897, 0.08924494, -0.19221568, -0.06504428, -2.07923865, 0.17470145, 0.07152849, -0.32921940, -0.22144139, -0.28158811, 0.49356937, -0.08932570, 0.02467916, 0.04082391, -0.01689572, 0.03003810, 0.04862965, -0.12646632, 0.05667486, 0.10857194, -0.05991579, -0.14875641, -0.27276182, 0.02729987, -0.10165640, -0.01018170, -0.05722999, -0.01289821, 0.05659427, 0.06206649, -0.02805901, -0.03219750, -0.09820438, 0.02489770, 0.13365597, 0.23729046, 0.28162876, 0.03493163, -0.01488779, 0.07620905, 0.07313060, 0.07060330, -0.03110315, -0.05301898, -0.20848209, -0.20598450, 0.03666165, 0.00892253, 0.00115586, 0.02381033, 0.01154664, 0.00955293, -0.06957221, 0.01743300, 0.04667538, -0.02294102, 0.07091647, 0.01456276, -0.07731936, 0.17063332, -0.15396370, -0.00029029, -0.19938558, 0.04341159, 0.15071835, -0.16600230, 0.05737175, 0.02639583, -0.10637858, -0.11665196, 0.01215319, -0.02043152, 0.04733797, 0.12581414, -0.14682674, -0.01457147, -0.01598205, 0.08043612, -0.00839151, -0.02913012, 0.01773105, -0.04952806, -0.35497144, -0.11314318, -0.09646212, -0.00852764, -0.37463430, -0.10684538, -0.16715877, 0.08631846, 0.15421820, 0.05233816, -0.21116571, 0.14651598, -0.03473150, 0.00913413, -0.00964820, 0.07954109, -0.15504205, -0.32087851, -0.11727044, -0.01876915, -0.19325468, -0.37782702, -0.09515636, -0.09529671, -0.12847054, -0.01870899, -0.01646059, 0.11520450, 0.08861211, -0.35136887, -0.00151870, 0.01443835, 0.14039724, -0.00003208, 0.00858386, 0.13594179, 0.05471338, -0.02173833, 0.05066692, 0.07868571, -0.05389138, 0.05704836, -0.05999045, -0.21563813, -0.19413921, -0.00230425, 0.06310083, -0.09779831, 0.18804336, -0.11021534, -0.08075909, -0.02819410, -0.02894608, 0.11253951, -0.20019534, -0.36039525, 0.04185867, -0.24489109, -0.01106101, 0.09809823, 0.00271609, 0.03812063, -0.03349417, -0.15154792, -0.12715885, 0.05553095, -0.07936543, -0.02278160, -0.04231615, -0.03904769, -0.17077510, -0.05687705, -0.58620316, -0.06422812, -0.05278876, -0.09073804, -0.01703258, -0.07211254, 0.35311317, -0.03920127, 0.02029244, 0.01578258, 0.00585062, 0.06170289, 0.02602775, -0.31618589, 0.04286362, -0.05589582, -0.10363526, 0.01125610, -0.41757596, -0.09226005, -0.09926367, -0.02136781, -0.04452777, 0.06689854, 0.19408439, -0.11858682, -0.00998971, -0.00451318, 0.02762848, -0.01382863, 0.07837961, -0.30172408, 0.16972713, -0.04250775, -0.02084550, 0.06979735, -0.16983244, -0.05516959, -0.07493388, -0.06947497, -0.07027389, -0.01360909, -0.14682314, 0.01155996, 0.07847915, -0.26130101, -0.02524571, -0.06504025, 0.09389314, -0.09817832, -0.04093484, 0.00922248, -0.36295313, 0.05442936, -0.32289127, 0.07173450, -0.03105097, -0.02060709, 0.13935454, -0.14130296, -0.12116693, -0.19705510, -0.01931507, 0.10543957, 0.00600949, -0.13707174, 0.07401558, -0.21355258, -0.07744148, 0.13693635, -0.12058302, 0.03730532, 0.10508901, -0.22729766, -0.04183304, 0.11372216, 0.25394130, -0.10214774, 0.05080876, -0.00176687, -0.08784686, -0.26543036, -0.14031221, -0.40915626, 0.04528154, -0.06881545, -0.03359710, -0.02776223, 0.07126963, 0.13650660, -0.21646440, -0.11813720, -0.19011444, -0.06239803, 0.03849648, -0.26032788, -0.06897433, -0.15536518, -0.01092230, 0.14534968, -0.12987049, 0.15496086, 0.05151029, 0.05053729, -0.00615397, 0.05332406, -0.58646405, 0.04077733, 0.08666408, -0.04574522, -0.36113393, 0.03325579, 0.14437997, -0.12944177, -0.03890391, -0.04778395, -0.04019276, 0.12784624, -0.16390267, -0.19300504, 0.06470777, -0.00406811, 0.01965917, -0.21035181, 0.06375585, -0.07285480, -0.32008505, 0.01424822, -0.04722950, 0.05811204, 0.05400974, -0.08000240, -0.13826987, 0.04978423, -0.32622594, -0.12943617, 0.06941593, 0.27022269, -0.02775659, 0.06007529, 0.03429965, -0.02935371, -0.04071790, 0.06905238, -0.00032211, -0.43338236, -0.15132855, -0.24296463, -0.06335224, -0.06445429, 0.06998936, 0.02909645, -0.16309357, 0.14627092, -0.16362235, 0.01141760, 0.05350436, 0.11065957, 0.08653270, 0.06452752, -0.09357752, 0.03257958, -0.00651510, -0.08894158, 0.12469874, 0.07443246, -0.13548075, -0.19316378, 0.09571144, -0.19160219, -0.15844196, 0.04865176, 0.02473314, -0.00108486, 0.51827151, 0.04234891, -1.15077639, 0.04973786, -0.06885806, -0.01271736, -0.95642447, 0.02362491, 0.04851198, -0.17742699, 0.05369582, 0.10632852, 0.02188154, 0.00828778, -0.07588407, 0.04064866, 0.03773217, -0.30167770, 0.21186854, 0.10965794, -0.01202318, -0.00306775, -0.27640584, 0.07436807, 0.02859183, 0.00190173, 0.01878824, 0.03753467, -0.11394303, -0.02844843, 0.05235028, 0.02242223, 0.11826773, 0.09348421, -0.13069142, 0.07768596, 0.02206942, -0.02158763, -0.11138226, 0.00257523, -0.04294520, -0.10396503, 0.00438934, 0.02763494, -0.50376505, 0.15873806, 0.03481010, 0.11974096, -0.03145968, 0.11558794, -0.06786096, 0.07805282, 0.06041494, -0.01481276, 0.14537503, 0.14117630, -0.24994269, -0.02657297, 0.13368632, -0.02619631, 0.07967778, -0.09116670, 0.08278368, 0.11672013, -0.00794451, -0.13718592, -0.24759890, 0.04003689, -0.15155502, 0.01963919, 0.04785914, 0.02844646, 0.16137828, 0.08646382, 0.05505566, -0.19318680, 0.10069115, 0.04502996, 0.00560510, -0.04422808, -0.21874633, -0.14890623, 0.01164561, 0.05666033, 0.06695759, -0.26463461, 0.07959855, -0.02850665, -0.53298175, -0.07000134, -0.07953124, -0.26167229, 0.00545054, -0.00695246, -0.10362266, 0.08815666, -0.02370053, 0.00075309, 0.00774831, 0.11057914, 0.04852895, 0.00762268, 0.03480070, 0.09244479, 0.12874757, -0.03940632, -0.14340825, -0.03438932, 0.29068860, 0.04616493, 0.05879919, 0.00292910, -0.08402607, -0.00880810, 0.17599757, -0.04114556, -0.37071079, 0.08288186, -0.10645922, -0.05974901, -0.09046165, -0.01583028, -0.01315701, -0.06544009, -0.09466808, -0.06307395, 0.14941333, 0.12436724, 0.03308738, 0.11544761, -0.01317857, 0.02168728, -0.32903802, -0.15540715, -0.10946037, 0.10952148, -0.07400220, 0.10200891, -0.11583561, 0.01892437, -0.02709328, 0.06215066, 0.03417338, -0.12282175, 0.16375661, -0.32248151, -0.15233341, 0.02592962, 0.05181404, 0.02484078, -0.03757384, -0.05318604, 0.04922898, 0.15397117, 0.13578276, 0.08613951, -0.08726508, -0.04675397, 0.03850479, -0.68115419, -0.05785283, 0.36200166, -0.05786452, 0.05603106, 0.10728616, 0.00845588, -0.48618770, -0.36091176, 0.10367491, -0.05676061, -0.06182896, -0.09344254, -0.27191123, 0.10470280, -0.13883147, 0.11367616, -0.03398561, 0.09391648, -0.03641967, -0.08591099, -0.20896490, -0.13280080, 0.06061868, 0.01705701, -0.26133034, -0.21897106, 0.11820728, 0.28875589, -0.19719414, -0.02576981, 0.08649208, 0.19100420, -0.05338138, -0.06608260, 0.08850189, -0.07671954, -0.13564840, -0.02480150, -0.03785264, -0.39288113, -0.14082050, -0.18700282, -0.00347469, 0.14424868, -0.09990209, -0.10233022, -0.23120318, 0.07143890, -0.02709129, -0.64265674, 0.37663904, 0.08618651, -0.07792367, -0.47622514, 0.00520478, 0.01009557, -1.37114072, -1.01997280, 0.29562414, -0.43217218, -0.00045543, 0.07672092, -0.05824655, -0.33773094, 0.08036575, -0.20979948, 0.06310780, -0.36236084, 0.00088743, 0.05283641, 0.04559148, 0.14814104, -0.07349153, -0.20093694, -0.22593458, -0.25431842, 0.12241563, -0.05264729, -0.38404977, 0.24230400, 0.13214059, 0.04412492, -0.03209578, 0.11078782, -0.09279381, 0.01556643, -0.30147058, 0.00798745, 0.06058802, -0.03948161, -0.04418193, -0.06221979, -0.08338013, -0.09487026, -0.09942765, -0.07063679, 0.03857115, 0.11903965, -0.19106603, -0.06035697, -0.11372082, 0.04631919, 0.00750923, 0.05116582, 0.09977951, 0.05019093, 0.01597175, -0.07358585, -0.14012615, 0.08876918, -0.16436110, 0.05014352, -0.02128649, 0.14980970, -0.06389025, 0.07996991, -0.21619076, 0.00260843, -0.03171645, -0.03269359, 0.04073479, -0.03799465, -0.29840174, 0.00736966, 0.01437933, 0.08814758, -0.27850986, -0.22008894, 0.02397519, 0.04840436, 0.04492816, -0.05591850, 0.06032687, 0.05980264, -0.03520199, -0.17601936, -0.08636564, -0.04392599, -0.09309410, -0.05205444, 0.04801766, 0.05438894, -0.01957116, -0.02421934, -0.14783077, -0.11183269, -0.00853716, 0.03150641, 0.04320942, 0.05745079, -0.08724031, 0.00011531, 0.03628607, -0.25087070, -0.02496110, -0.16822746, -0.03583568, -0.01263236, -0.04331490, 0.04486722, -0.09684072, -0.16590828, -0.01686196, -0.11073138, 0.06196298, 0.10309459, -0.09901884, -0.14147702, 0.05756567, -0.06946337, -0.04963601, -0.03352357, -0.00512527, 0.03120543, -0.01059901, 0.05450445, 0.01307194, 0.03506584, -0.33898914, -0.15753549, 0.03215667, 0.02905394, -0.02397675, -0.05524695, 0.01516841, -0.00710789, -0.02409382, -0.05093994, 0.06084336, 0.00161524, -0.03790369, -0.08154831, 0.03575449, -0.05116046, -0.14261076, -0.08060475, -0.03503636, -0.04556404, -0.08875674, -0.05595221, 0.00000471, 0.01225643, 0.06553075, -0.05801361, 0.00151886, -0.01846329, -0.05680132, 0.00491190, -0.06704884, -0.61630762, 0.14224967, -0.03435776, 0.13500412, 0.02672366, -0.02597196, 0.01513686, -0.22303587, -0.72906578, -0.01832041, 0.02328509, -0.09907178, 0.03633634, -0.03109929, 0.00661487, 0.21798362, -0.01467566, -0.12517062, -0.00666522, -0.14055716, 0.01703670, -0.09860654, 0.05336333, -0.07442976, 0.02546303, 0.04129187, -0.02600776, -0.13123739, -0.03566547, 0.06615856, 0.01207229, 0.05443081, 0.18059933, -0.10438346, 0.03364741, 0.10754446, -0.04301526, 0.02266072, 0.02566675, 0.03021101, 0.04779556, -0.02065195, 0.02481734, 0.07999226, 0.05774232, 0.13014331, 0.07110932, -0.13332279, 0.20067713, -0.72402513, 0.04813247, 0.07899071, -0.03266394, -0.10052855, -0.00728946, -0.17817555, 0.07399387, 0.02747022, -0.16016144, -0.14295489, 0.04262030, 0.01318237, 0.16196534, -0.00981012, -0.26698202, -0.30071300, -0.33722681, -0.10274100, -0.35179332, 0.04595799, -0.05449346, -0.11562181, 0.15871382, -0.13321337, 0.12570262, -0.04843964, 0.08641437, 0.07678215, -0.05615604, -0.07101490, 0.02775000, -0.82690352, 0.07436603, 0.17682163, -0.09144314, 0.09484104, -0.09918800, 0.04052085, -0.07866021, -0.10290169, -0.04815328, 0.03828935, 0.05969978, -0.07625713, 0.03585019, -0.09765862, 0.21526380, 0.16103594, -0.04447886, -0.37872878, 0.13046509, -0.12414140, 0.08473147, -0.59918112, -0.00707529, -0.02784198, 0.33221552, -0.00972464, 0.06998902, -0.00667253, 0.18480667, 0.03564858, 0.03787079, -0.22774330, 0.06368528, -0.10354768, 0.05994394, -0.11187792, 0.15431203, 0.07914939, -0.00064245, -0.19832219, 0.01121864, 0.17294997, 0.01834252, -0.04265749, 0.02640519, -0.07849281, -0.00573762, -0.04101538, -0.04807765, -0.07140706, -0.03540271, -0.09866264, 0.01772615, -0.04099645, 0.02343731, 0.05819518, 0.04724617, -0.07977417, 0.01634379, -0.10724457, 0.02043672, -0.00787576, 0.02296303, -0.03772563, -0.01836747, 0.04479581, 0.02546809, 0.06826411, -0.09926865, 0.00415020, -0.01669661, -0.05087715, -0.06125612, -0.07110582, -0.03022828, -0.06881393, -0.08868713, 0.02761536, -0.01067144, -0.02653536, 0.05393650, -0.01014384, 0.03781538, -0.01007042, -0.02939151, -0.08453225, -0.02980662, 0.08548263, 0.06598091, -0.07155313, 0.05842277, -0.02437230, -0.05668869, 0.04213654, -0.09638853, -0.08051212, 0.02970977, -0.08578487, 0.05372630, 0.05680268, -0.02007592, -0.04277458, -0.01300815, -0.01440761, -0.07223637, 0.04681948, -0.07248043, 0.04115104, -0.10353734, 0.06538405, -0.08991586, -0.06944065, -0.02184002, -0.06106134, 0.07392159, -0.00858597, -0.00077435, -0.04691256, 0.07808365, -0.05101553, -0.06749140, 0.02355319, 0.06565187, -0.06103506, -0.08740773, 0.02505971, 0.03604636, 0.07357503, 0.03673675, 0.02192387, 0.01029462, -0.00337352, -0.04843205, -0.07586417, -0.02073304, -0.07863076, 0.07600132, -0.03526304, -0.05728031, -0.06560253, 0.00129137, 0.04030533, -0.08637582, -0.00881227, -0.04696101, -0.02970554, 0.05210805, 0.06718542, -0.08692202, 0.04701842, 0.07829528, -0.03647691, -0.01863375, -0.05357138, 0.00874570, 0.04867574, 0.01180895, -0.07560564, -0.02730980, -0.08983941, -0.05207279, -0.06950987, 0.04738841, -0.09828244, -0.04450522, -0.06884868, -0.07382295, 0.01038208, 0.06263057, -0.03890885, 0.00927292, -0.04888748, -0.07547040, 0.05814774, 0.13958158, 0.17783602, -0.29463387, 0.10409437, 0.17241295, -0.07144592, 0.10936648, 0.02284072, -0.02186418, -0.05049002, -0.09393626, 0.35283533, 0.10300391, -0.15356523, 0.15195303, 0.05826225, -0.00111933, 0.07935462, -0.05862037, 0.00650231, 0.01605188, 0.30196506, -0.06365929, -0.04563288, 0.04281291, -0.47795364, 0.07734017, 0.03894145, 0.18662705, 0.04236159, -0.01829601, 0.27686679, -0.08975116, -0.25467673, -0.11718923, 0.16638209, -0.02056870, -0.06252179, 0.10326668, 0.13530871, 0.11738477, 0.07048572, -0.04906999, 0.04536080, 0.04762306, 0.02986871, 0.05097240, -0.03214256, 0.04485609, -0.00175701, 0.14250715, -0.00584810, 0.15623747, -0.84443611, -0.71809602, 0.14057080, -0.02613804, -0.21617736, -0.16306975, -0.21132722, -0.10547651, -0.04652529, -0.05224279, 0.05732087, 0.21084574, -0.12304398, 0.18907489, -0.05319062, -0.32265610, 0.14083090, -1.81931722, -0.03763252, 0.08869713, -0.05365411, 0.03257549, 0.09029551, -0.06155964, 0.03463972, 0.09269091, 0.13204515, -0.39731392, 0.43703663, 0.30303448, -0.19198255, -0.16067681, -0.05051380, -0.17808644, 0.04562167, 0.05751201, -0.06874694, 0.02363052, -0.05134996, 0.01722241, 0.02959877, 0.07178743, 0.16389684, -0.07597229, 0.02721138, -0.26100129, -0.15297033, -0.08189489, 0.02865632, -0.09602751, 0.01231410, 0.13249138, -0.04818409, -0.02220473, -0.07230620, -0.09858312, -0.01929627, 0.13954876, 0.08046427, 0.07132391, 0.17620191, 0.15524076, 0.09014842, -0.03212215, -0.02551338, 0.01086695, -0.05533151, 0.14611499, 0.01418257, 0.05543072, -0.26012826, 0.02043269, 0.22966655, 0.13099784, 0.05319059, 0.03374639, 0.02899694, -0.16214016, -0.14086691, 0.07918758, 0.08434431, -0.14774801, -0.17096984, -0.06529531, 0.04110055, -0.18451835, -0.23747185, 0.06058325, -0.01929205, 0.08243541, -0.04694937, 0.06571528, -0.26246387, -0.04590535, -0.09352188, 0.06980697, -0.24210426, -0.12005988, 0.03312284, -0.17277376, 0.00522004, -0.11247998, -0.08000091, 0.01706574, 0.03736291, 0.02585224, -0.04967840, -0.12656848, -0.00227104, -0.01494755, 0.20163727, -0.02530858, -0.08616982, 0.01542572, 0.08782286, 0.05883170, -0.29653579, 0.28027818, -0.07879414, -0.03721288, -0.22685307, 0.08376485, -0.01169044, 0.04375277, -0.12652998, -0.15128748, 0.03308125, -0.13030918, -0.33303401, -0.03291241, -0.00365855, 0.01555065, 0.03478947, 0.13556759, -0.11893751, -0.00588346, 0.00510850, -0.10948526, -0.09274141, 0.08119473, 0.09352954, 0.01669067, -0.09308897, -0.03152789, -0.00984241, -0.12810045, 0.03873631, 0.00499392, -0.12487072, -0.16328722, 0.08503292, -0.00453122, 0.21523824, 0.06795654, 0.14317305, -0.25420997, -0.13027999, 0.03938713, -0.09227642, -0.11253282, 0.10498741, -0.07708114, 0.20445918, 0.06918196, -0.11040609, -0.10448299, 0.01038348, -0.06384907, -0.16431153, 0.05278910, 0.21155293, -0.01062036, -0.02054639, 0.01950523, 0.08042672, 0.07528490, -0.63173836, -0.08871552, -0.54882056, 0.01153957, -0.02687894, 0.12292019, 0.01563825, -0.05694758, -0.21297646, 0.02171535, -0.12179850, 0.05057349, 0.13361971, -0.25243828, 0.09537979, -0.08236702, 0.04256180, -0.10575680, -0.09774437, -0.00932823, -0.17216174, 0.00373106, 0.26725498, -0.10667177, -0.11434494, -0.01579028, -0.02425859, -0.56827414, 0.04816106, -0.39686427, -0.20798875, -0.00246301, -0.55497032, -0.16202427, -0.05064396, -0.04044968, -0.09754184, 0.13623449, -0.08120503, -0.08582395, -0.19082639, 0.01355166, -0.10853864, 0.10437004, -0.07493117, -0.09782545, 0.09961163, 0.10361232, -0.00503349, -0.16109724, -0.14317083, 0.03480260, -0.04341833, -0.19676186, -0.10825054, -0.09773675, -0.63975757, -0.00699541, -0.02333655, 0.08424823, -0.00994107, 0.17919262, 0.15587910, 0.06861762, 0.04461884, -0.81439316, -0.07601620, 0.01821240, -0.15007113, 0.04377559, 0.03792402, -0.04194498, -0.09612689, 0.13290808, -0.15259629, -0.15957065, -0.02243746, -0.11938647, -0.25933623, 0.14355904, -0.00875865, -0.18761288, 0.14704488, 0.06878398, 0.10056373, 0.02207541, 0.03112150, -0.06147582, -0.10508190, 0.00788825, 0.14116497, -0.01154395, -0.02644800, -0.20934747, 0.15028511, 0.05003888, -0.02504396, -0.29741499, -0.02832805, 0.03845466, -0.30788395, -0.23958871, 0.09288222, 0.10999868, -0.02405258, 0.14420648, -0.11636074, 0.22996508, 0.04419478, -0.16945601, -0.02850790, 0.00730178, 0.00926941, -0.29086113, -0.48436689, -0.12915029, -0.08841759, -0.00087811, 0.06148424, 0.01864473, -0.05013628, -0.17908414, 0.09208582, -0.08129418, -1.81521809, -0.18397823, -0.02782136, 0.03370130, -0.04476079, -0.07352144, -0.59254122, 0.05393817, -0.27437723, -0.07044971, -0.57997137, 0.03143669, -0.02389817, -0.02481574, -0.10112799, 0.03598072, -0.03057323, -0.15656990, 0.04777864, -0.04127335, -0.08931288, -0.25439015, -0.32065371, -0.17472738, -0.41721302, -0.11594297, -0.02144309, -0.12057142, -0.29357660, 0.14110401, -0.08341242, -0.34369054, -0.11554544, -0.13744833, 0.02462145, -0.00161774, -0.19296029, -0.07267845, 0.17117710, 0.13123086, -0.03825087, 0.12740083, 0.14078578, -0.03040439, 0.01121499, -0.39747989, -0.13786437, -0.16358551, 0.20955303, -0.11313684, 0.05572892, 0.15313897, -0.29136613, 0.15319994, -0.31037626, 0.07327650, 0.03282159, 0.05593498, -0.02635147, -0.33843869, 0.09770735, -0.06270561, -0.01179708, 0.25255573, 0.01933847, -0.26708135, 0.13476761, -0.46957985, -0.01265239, -0.00692439, -0.11680502, 0.07039993, 0.08122836, -0.45710576, 0.09469153, 0.14441471, 0.05384225, -0.19133723, -0.11905001, -0.02063786, -0.04482757, -0.21580684, 0.05564807, -0.22816962, 0.07500831, 0.12454417, 0.01187912, 0.09210299, 0.10191153, 0.16511574, -0.00650494, -0.27172559, -0.11335392, 0.20797125, -0.01491072, -0.34331450, 0.13154607, -0.21887945, 0.03828856, 0.20880304, -0.11874048, -0.06635542, 0.03204526, 0.06227445, -0.07399911, 0.09372499, -0.33726040, 0.14689894, -0.00209159, -0.11972975, -0.56476778, -0.01849372, 0.15352000, -0.02167308, 0.19101842, 0.15099478, 0.13516636, -0.00867247, -0.55255252, -0.02405142, -0.00871489, 0.01427800, -0.02626935, -0.09858918, -0.13558106, 0.09934076, -0.08247927, 0.14884618, 0.07773308, 0.02867933, 0.02256404, 0.10966144, -0.12485556, 0.05884772, -0.19571368, -0.07468898, 0.17852081, 0.17513296, -0.10495748, 0.07297350, -0.00010114, 0.06280793, -0.00389375, 0.06093694, 0.14448684, -0.16947590, -0.28069511, -0.07939235, 0.19633709, -0.05619100, 0.02536367, 0.10123543, 0.07606603, 0.06278724, 0.02968768, 0.03951258, -0.11402185, -0.09702128, 0.02791171, -0.35577428, 0.11637142, 0.04572996, -0.45702073, -0.31562611, -0.09411910, 0.13961847, 0.12008882, -0.04250446, 0.11803368, -0.13272016, -0.12632045, 0.01954833, 0.10120360, -0.02899641, -0.27072680, 0.09127738, -0.79767507, 0.04251776, -0.65895778, -0.03451613, -0.08264879, -0.12148870, -0.20256419, 0.13900048, -0.17458060, 0.05800529, 0.44031268, -0.20787846, -0.22904760, 0.19189525, -0.07644684, -0.11166687, 0.01784435, -0.05232378, 0.12545985, 0.05155978, -0.21944523, 0.44442937, 0.15089175, 0.06614870, -0.09503471, -0.66220784, -0.02884634, 0.21489558, -0.17796960, -0.07963911, 0.14693199, -0.26412725, 0.07817391, 0.11520012, -0.12813887, 0.07164942, -0.47316784, -0.01613968, 0.06810232, -0.96804261, -0.06081222, 0.10860687, 0.02158368, 0.00210288, 0.09294493, -0.40238151, -0.10307819, -0.18920277, 0.12797169, 0.15800288, 0.22538885, -0.17052026, -0.26056322, 0.03544590, -0.02813866, -0.70157403, 0.02548822, -0.06439569, -0.59478807, 0.03066885, 0.23728473, -0.02863306, -0.06222735, -0.11274543, 0.23997600, 0.15428449, -0.12673549, 0.07925785, 0.01743632, -0.03485958, 0.16385861, 0.09743237, -0.11278186, 0.15074822, 0.07618719, -0.07519982, -0.16825071, 0.24626695, -0.15292162, -0.11652735, -0.86899960, -0.00173947, -0.06563358, -0.02601149, -0.25248912, 0.00738442, -0.34695250, -0.45625761, -0.15986983, -0.98678559, 0.48572108, -0.13478203, 0.00048262, -0.75629979, 0.06396876, 0.03053528, -0.08990189, -0.14409988, 0.02230777, 0.13460156, -0.27976313, -0.22950228, 0.10111137, 0.10041881, 0.10739210, 0.02986054, 0.13543811, -0.07045644, 0.09550364, -0.75005561, -0.04834341, -0.24440044, 0.08961830, -0.06558709, -0.05393176, 0.09058807, -0.01990839, 0.06050931, 0.05406800, -0.03924229, -0.04348670, 0.10826584, -0.15098368, -0.09025194, 0.09503399, -0.01164602, -0.31051236, -0.00657974, -0.05170461, 0.05454549, -0.04717688, 0.06473407, -0.17258728, 0.00385493, 0.04285425, 0.10894272, 0.01071258, -0.00287817, -0.06715914, -0.32690182, 0.02386969, -0.12373661, 0.11518759, 0.13220285, -0.08148251, -0.03849769, 0.02001674, 0.04600908, -0.02704306, -0.03680275, 0.04115286, 0.04511938, -0.14291286, 0.00510034, 0.02640282, 0.11379502, 0.00727672, 0.14630845, -0.01290713, 0.12636347, 0.03500404, 0.09435058, 0.00362262, -0.11651210, 0.07963296, -0.27291104, 0.05430301, -0.01025510, 0.18370762, -0.05429054, -0.21396662, 0.07201482, 0.14107244, -0.10473478, 0.00350274, -0.31637952, 0.03268472, -0.09244541, 0.04281174, -0.19612946, -0.31896311, -0.07863747, -0.05271075, 0.05044260, -0.00671542, -0.11001692, -0.03367643, 0.05367420, 0.14851537, -0.03549880, -0.02864686, -0.15347880, -0.11893674, -0.15690964, -0.02631504, 0.10402812, 0.01362107, -0.15289074, -0.20821381, 0.05874488, -0.03983837, 0.00946574, -0.08736625, 0.01722387, -0.01931614, 0.13765751, 0.02556520, 0.14290696, -0.66492766, 0.00873550, 0.03796962, -0.11146790, -0.09529608, 0.11981282, -0.47188568, -0.17461765, -0.14438352, 0.02335720, -0.03957747, -0.04055919, 0.03544083, -0.05093115, 0.13242717, 0.06517110, 0.02408119, 0.11228748, -0.07121909, -0.05192134, 0.13108915, -0.05683718, -0.03815825, 0.08275158, -0.07295319, 0.11852293, -0.01675242, 0.08722642, -0.18092182, 0.10947078, 0.10261746, -0.06894074, 0.03333877, -0.32711846, -0.13699791, -0.06451584, 0.01124954, -0.06246350, -0.19917075, 0.05650643, 0.06743097, -0.16413419, -0.11486775, 0.05741100, -0.04725424, -0.06281867, 0.02691419, 0.02511740, -0.10778609, -0.00195010, -0.11302591, 0.05358136, 0.00628183, -0.04969803, -0.11466470, -0.18179411, -0.11707807, 0.01068189, -0.03366547, -0.01940120, 0.03363802, -0.03684126, 0.01355075, -0.02517036, -0.05718507, -0.03253507, 0.09595717, 0.01453831, -0.06207708, -0.24915160, -0.00982726, 0.06314150, -0.03301476, 0.12496912, 0.09115054, -0.02892877, -0.19177514, 0.02296447, 0.06015036, 0.05070126, -0.23526943, -0.14207426, -0.06900930, -0.12248262, -0.06226054, 0.04604928, -0.03189192, 0.00318734, -0.10930347, 0.03146194, -0.04181023, 0.01940411, 0.00807421, -0.11004837, -0.03960805, 0.06665850, -0.04497246, -0.03793109, -0.25350359, 0.22392604, -0.02638142, -0.19664592, -0.05547752, 0.07332695, -0.17375255, -0.03599505, 0.07883695, 0.02259923, 0.02363606, 0.11298601, 0.00425465, 0.03100512, 0.03176630, 0.10047143, -0.16634868, -0.05580936, -0.02592537, 0.00346953, -0.03089043, -0.07183561, -0.12404796, -0.04339792, 0.03450783, -0.15300244, -0.05044347, -0.06933001, 0.06460979, -0.12170712, 0.02067380, -0.00702009, -0.06155307, 0.06524038, -0.17674352, 0.01226440, -0.53250492, 0.02565514, -0.06612770, 0.06336705, -0.11358779, -0.15502542, -0.04881235, 0.02636568, 0.00607301, 0.00451657, 0.14804080, -0.13844194, 0.04831234, 0.00434553, 0.01289651, -0.11669164, -0.09663384, -0.00393198, -0.11919289, -0.10409552, 0.27169800, -0.00841131, 0.02589418, 0.00028393, -0.00231285, -0.29319277, 0.14581248, -0.14821866, 0.12683539, 0.13441429, 0.09716319, 0.02967032, 0.14750540, -0.32678524, 0.00698948, 0.12057524, -0.19382340, 0.04978433, -0.08167526, 0.03369508, 0.01647114, 0.04086328, -0.01599459, 0.11333252, -0.13989919, -0.18329765, -0.09398329, 0.04188855, 0.08950849, -0.00915224, 0.07510884, 0.06932905, -0.04516089, 0.03323760, 0.04354125, -0.00948603, 0.03720688, 0.35110021, -0.10229491, 0.06064335, 0.11305996, 0.11088435, 0.09002866, -0.01910275, -0.21599706, -0.07916010, -0.37332234, 0.11859804, 0.07984721, -0.05003381, 0.17473878, -0.11616052, 0.00634753, 0.05121833, -0.52993822, 0.11114138, 0.03743628, -0.04262459, 0.00617869, 0.26468068, -0.17819837, 0.08597104, 0.10683236, 0.12700921, -0.61185199, 0.02519724, 0.09581106, 0.30321449, -0.02898845, 0.02798192, -0.12050699, -0.67664444, 0.02331796, -0.10469468, 0.25613049, -0.17523400, -0.10002425, 0.05514065, -0.30344331, 0.09568349, 0.00511914, -0.05863167, -0.16184379, -0.05360587, -0.00587262, 0.16331889, -0.14445302, 0.02970254, 0.11389151, -0.10526866, 0.07902282, -0.11235689, -0.03703540, -0.06076022, 0.04256603, -0.21299940, 0.06494113, 0.03390904, -0.09772468, 0.00937265, 0.00283864, 0.15696797, 0.04950994, 0.06179977, -0.14326394, 0.08585658, 0.01861096, -0.01152356, -0.73117077, -0.67415196, -0.17100872, 0.15288733, 0.00733590, 0.11948623, -0.07353280, -0.63327539, 0.08505344, 0.00837775, -0.67599648, 0.06169772, -0.50700366, -0.02205589, -0.01738115, -0.05144880, 0.03138205, -0.15547271, -0.20667610, 0.01771527, -0.05656125, 0.02735698, -1.31593621, 0.05838233, -0.00949458, 0.43304247, -0.38349479, 0.27706814, 0.12316187, -0.13136373, 0.31092039, 0.08232601, -0.22598115, 0.12491875, -0.04589228, -0.14400195, 0.05146042, -0.19049802, 0.27284783, 0.03902788, 0.11078382, 0.14926964, -0.78622514, 0.01189395, -0.07888423, 0.09845583, -1.47689497, 0.15782075, 0.15029113, 0.03465293, 0.03072209, 0.02117557, 0.03893165, 0.03321792, 0.01054528, 0.03538437, -0.18331997, 0.05039224, -0.03609541, 0.23107290, -0.07718650, 0.25328764, -0.31562999, 0.30495438, 0.25858840, -0.07422707, -0.14889087, 0.26631221, -0.19503903, 0.07822200, -0.24062862, 0.09796762, -0.00200729, 0.00883980, 0.27992338, 0.24155103, 0.01606584, 0.17719978, -0.06994607, -0.06366216, -0.11013141, -0.13020468, -0.06410307, 0.00952769, 0.31535748, 0.03382871, -0.00986115, 0.04967395, -0.32073912, 0.20357816, -0.02899713, 0.40872103, 0.03351060, -0.04217594, 0.14061277, 0.13645382, 0.07443917, -0.02274147, 0.14455895, 0.08579441, 0.05508922, -0.00381472, -0.04344985, -0.01227689, 0.13412669, -0.20714657, -0.22358736, -0.17066586, 0.02702990, 0.22929591, -0.04456389, -0.08383101, 0.05870380, 0.01563434, 0.15833966, -0.13731521, -0.00880067, -0.05729264, -0.38370964, -0.07709672, 0.12191951, -0.01273479, 0.23362622, 0.22363460, 0.02914903, 0.29063460, 0.13764876, -0.04245158, -0.02602978, 0.02205099, -0.20247282, -0.23587488, 0.48975277, -0.27158418, -0.05841170, 0.01047421, -0.00345898, -0.08225979, -0.02569534, -0.12664825, 0.20697370, 0.00911960, -0.06657992, 0.09660971, 0.05406931, 0.03470392, 0.11664704, 0.09318130, 0.24601601, -0.01208683, 0.14095588, -0.14682110, -0.11100864, -0.08152332, -0.15813112, 0.18989328, 0.07461971, 0.01896906, 0.05222414, 0.04993962, 0.23695497, -0.08459212, 0.03380750, -0.05870939, 0.06670196, -0.16197601, 0.10824409, -0.00700642, -0.29825038, 0.05494656, 0.02901981, -0.17999004, 0.01349215, 0.11256399, 0.01525432, -0.33539578, -0.01111025, 0.09583827, -0.15171051, 0.03661253, -1.12710869, -1.39858890, -0.25882962, 0.01663557, -0.06856889, -0.01229713, 0.05542209, 0.16506962, 0.00450170, -0.00180598, -0.08020902, 0.28486717, 0.21098273, 0.08214957, -0.51602852, -0.06183141, -0.42431048, -0.02010531, -0.03008794, 0.13799088, -0.13232768, 0.06939515, 0.02881716, 0.14135261, 0.05401671, 0.18947035, 0.04707591, -0.13624682, 0.05265041, -0.22113615, -0.00672964, -0.03822777, -0.03201322, -0.05163750, -0.03214804, -0.14023933, -0.00702110, -1.07090569, 0.12287632, -0.11928796, 0.11256886, -0.41151330, -1.02277422, 0.18724422, 0.13843857, 0.08633258, 0.24016955, -0.05611420, -0.14727756, -0.05167877, 0.10913482, 0.10234260, -0.02168495, -0.02721648, -0.09372736, -0.28864896, -1.19340909, 0.04765087, -0.03493655, -0.12491297, 0.11122081, -0.02155370, 0.01885386, -0.08174223, 0.03925172, 0.02223428, -0.05571392, 0.04154373, -1.03923500, 0.10760915, -0.80105895, 0.01998066, 0.10795981, 0.09171116, -0.50923008, -0.03599888, 1.70253396, -0.06136948, -0.38216478, 0.01041102, 0.21093281, -0.21949920, -0.02747500, 0.06571680, -0.01414059, -0.01734336, 0.09731884, -0.19620925, 0.04958050, -0.02143145, -0.21051228, -0.06261346, 0.13126288, 0.20836551, 0.12745012, 0.00330105, 0.17255479, -0.08705315, 0.10766840, -0.07847641, 0.26017597, -0.67854083, 0.08258630, -0.11762112, 0.06732997, 0.07164045, 0.08846705, 0.09063075, -0.00330946, -0.97156930, 0.00791550, 0.02010798, -0.04512293, -0.11511589, -0.05950111, 0.03282939, 0.20460260, 0.02134639, -0.18044277, 0.05337116, -0.11174505, -0.04213376, -0.02481709, 0.02855333, -0.02788453, 0.02448818, -0.01144521, -0.01085857, -0.06218250, 0.02080278, 0.18729258, -0.05481287, 0.13094099, 0.23600607, -0.14617188, -0.00663936, -0.10443362, 0.01154175, 0.00213377, -0.09424078, -0.00011677, -0.00108084, 0.03779099, 0.11989173, 0.12504652, 0.05030392, -0.16296004, -0.39008975, 0.12084904, 0.14600350, -0.10138651, -0.11359177, 0.00434920, -0.06767817, 0.03992813, -0.03658965, -0.07874715, -0.06178881, 0.04726158, -0.05775501, 0.04086259, -0.08744970, 0.07401745, 0.04632096, 0.03226595, -0.01985006, -0.33895838, -0.47511062, -0.09228526, 0.01525301, -0.10018494, -0.12174369, -0.19002324, -0.13612495, -0.19023515, -0.10253587, -0.03716002, -0.01080167, 0.02125725, -0.00955249, -0.11680159, 0.09635826, -0.02133930, 0.02283872, 0.01385616, -0.06582621, -0.00970057, -0.13481531, -0.02615069, 0.01223193, -0.01015934, 0.00091535, -0.04586009, -0.03984645, -0.06884062, -0.05067843, -0.07339347, 0.08031043, -0.10360450, -0.14842825, -0.13933709, 0.00721459, 0.08851188, 0.00199896, -0.48021042, -0.37457180, 0.02071005, 0.09686007, 0.02398124, -0.04020943, 0.05617197, 0.09394003, 0.12952961, -0.01484013, -0.20171539, 0.03056135, -0.10560530, 0.06607843, -0.07657800, -0.01338583, 0.03358384, -0.07517226, -0.18738751, -0.13218631, 0.01800588, 0.05870892, -0.06146892, 0.01218138, -0.04582443, -0.22782224, 0.54023743, -0.04703885, 0.02171142, 0.13835184, -0.07846589, -0.01636464, -0.00986058, 0.14396359, 0.03044554, -0.07312309, 0.07850387, 0.04240847, 0.04096420, 0.08623987, -0.05420295, -0.20696393, 0.20524764, 0.03260568, -0.08530261, 0.02196385, -0.16597186, -0.12480354, 0.01687869, -0.01808577, 0.04448203, 0.03001479, 0.00348930, -0.30052301, 0.02616753, -0.04660099, 0.09593497, 0.01996450, 0.06561511, -0.03502427, 0.07331411, -0.11915559, -0.07436784, -0.59760660, -0.25373384, 0.14667889, 0.03816097, -0.25294539, 0.11185243, -0.05789943, 0.29273218, -0.04651383, 0.00083092, -0.03594163, -0.23303975, -0.51822215, -0.13230915, -0.32090226, -0.11637399, 0.24221034, 0.02730340, 0.09491913, 0.00233160, 0.04971515, 0.11387485, -0.18740284, -0.11581055, -0.10497827, 0.12087905, -0.22845513, 0.06557666, 0.00074885, -0.14575855, 0.20997703, -0.16601145, 0.02199854, 0.11061107, 0.07567147, -0.07053607, -0.09173492, -1.05438495, 0.07969344, 0.05565430, -0.05699124, -0.23789001, 0.02436399, 0.17694001, 0.06900116, -0.16251664, -0.16727282, 0.09696329, 0.05074344, 0.23621775, -0.01826504, -0.04076943, 0.14439784, -0.02057751, -0.08602230, -0.06147127, -0.06356583, -0.29780927, 0.11165044, -0.03058210, 0.11975614, -0.03620490, 0.05847513, -0.15570712, -0.09262727, -0.11133559, 0.00880349, 0.10857905, 0.06522687, 0.15523535, -0.05870775, -0.09811217, 0.11162715, -0.04827753, -0.07820915, -0.00752252, -0.06147869, -0.12998636, -0.09651864, 0.03971246, -0.14965217, -0.04338720, 0.02975056, -0.13684085, 0.09086451, -0.03399476, -0.10165745, 0.01027555, 0.13311152, 0.06632683, 0.17586921, 0.02323356, -0.02089049, 0.02124779, -0.01634738, -0.04989035, -0.07542194, -0.20457891, -0.11520900, -0.05377506, -0.00648679, -0.15020445, 0.06305819, 0.08429363, 0.03068175, 0.00442109, 0.10464114, -0.08374941, -0.09612907, -0.07614611, -0.00898207, -0.08741178, 0.05221757, -0.06108109, -0.00766247, 0.01678558, -0.08518979, -0.00292773, -0.04788709, -0.01105986, 0.01542538, 0.00459598, -0.13796675, -0.12184735, -0.15601939, -0.00427891, 0.03817665, 0.05498538, 0.00270380, -0.09633594, 0.06059194, 0.00045161, 0.21287102, 0.02045878, -0.04062027, -0.15540688, 0.05444589, -0.00745873, -0.00914999, 0.08575722, -0.21580556, 0.01122580, -0.00992317, -0.08624693, -0.00942024, 0.01724928, -0.13235372, 0.07577912, -0.06205177, -0.07817214, 0.03420736, -0.15274426, -0.07650155, -0.01000294, 0.01916944, -0.17946465, -0.04466024, 0.11528613, 0.06888598, -0.01649400, -0.04171895, -0.06560729, 0.00856501, -0.00175922, -0.02121409, 0.06655424, -0.01817930, 0.10357320, 0.04158148, -0.12146860, -0.09630983, 0.04678825, -0.02946815, -0.03688917, -0.06878590, 0.06359646, -0.04725654, 0.09043159, -0.02606340, 0.11844502, 0.06707305, 0.04004915, 0.04915504, -0.01924086, -0.09691317, -0.02658189, -0.13327958, 0.09221622, 0.01467767, -0.02186063, 0.08718109, -0.15751480, -0.03123085, -0.16774550, -0.05486313, -0.07430344, 0.06749508, -0.06180815, -0.06438036, 0.01364850, -0.03032064, 0.01480207, 0.01115156, -0.03372407, -0.01983426, 0.13390753, 0.07571770, 0.01416406, 0.11734074, -0.04724659, -0.08244185, -0.07682776, 0.03643215, 0.11171491, 0.03000934, -0.09808335, -0.01571137, 0.04667751, -0.27051219, 0.21041945, -0.13305728, -0.23568460, 0.06982847, -0.30553171, -0.12503991, 0.00714281, 0.09032115, -0.58956420, 0.18479526, -0.05086412, -0.36528319, -0.13463537, 0.11977256, 0.35657629, -0.04262605, 0.15339352, -0.03406680, -0.09939535, 0.15574127, 0.08543475, 0.05674009, -0.16974731, 0.17926188, -0.06556611, -0.54289657, 0.14993341, -0.21844758, -0.12331846, -0.09313823, -1.46674180, 0.11724500, -0.05917341, -0.08715158, 0.21112593, 0.07705332, -0.00385607, -0.36706749, 0.11360510, 0.13299723, 0.02712591, -0.09074232, 0.04024642, -0.07998353, 0.07529278, -0.31134334, -0.06477369, 0.17472665, 0.00769881, -0.13943720, 0.06139249, -0.16770285, -0.21481168, -0.06930808, 0.04562750, 0.19550802, 0.17097425, 0.04680433, -0.87308562, -0.07348743, -0.21612687, 0.01907780, 0.08647080, 0.02057092, 0.08861076, -0.82483608, 0.00167051, 0.11288022, -0.25097719, -0.40105256, -0.01852250, -0.02178724, -0.21801686, 0.04152330, -0.17281245, 0.08020497, 0.05479094, 0.13007379, -0.35428295, -0.03186786, -0.07318640, 0.32476643, 0.06036687, -0.00640761, -0.05183810, -0.08208193, -0.52140838, -0.12971444, -0.10392400, 0.07149291, -0.19188850, -0.05866798, -0.20648594, 0.07605655, -0.05066874, -0.12174567, -0.04265960, -0.00782342, -0.15811451, 0.05292906, 0.05667789, -0.24514776, 0.18425454, -0.38648942, -0.08970569, -0.03364954, -0.30682907, 0.13984263, -0.08632363, 0.00698389, 0.01391118, -0.14148872, 0.02884375, -0.07769550, -0.24838364, -0.15818305, 0.08587934, -0.00063348, -0.68504888, -0.11322242, 0.21391042, 0.01912086, 0.14378691, 0.19116899, -0.25075454, 0.16473126, 0.21412675, -0.29302162, 0.22085066, -0.07442752, 0.07207458, -0.00367397, 0.02857629, -0.06885778, -0.05002074, -0.05979861, -0.07024905, 0.02993483, 0.02989553, 0.00870107, -0.05341086, -0.20443207, 0.12368599, -0.05078633, 0.14089809, 0.04342107, -0.11589154, -0.05300565, -0.13489667, 0.03021090, -0.19370842, 0.04227083, -0.09680313, 0.03037760, -0.00263979, -0.13114139, 0.04207209, 0.01217571, -0.07920764, 0.00483222, -0.08662739, 0.14422739, 0.13898657, -0.03739832, -0.07892139, 0.07961566, -0.04271599, 0.14523774, 0.11428767, -0.72405428, 0.00777984, -0.09765831, 0.09312249, 0.05362910, 0.02565683, -0.02576286, -0.04108817, -0.15105598, -0.02547969, -0.14832471, -0.18467809, -0.02590596, 0.08621262, 0.08997367, -0.02894882, 0.02006741, -0.13142601, -0.07877243, 0.01246902, -0.03061945, 0.08373322, -0.02477795, 0.03013834, 0.03453145, -0.01030869, 0.01572576, -0.18816856, 0.07194002, 0.01226891, 0.11198811, -0.02615549, 0.08152295, -0.00554665, -0.04384704, 0.03465097, -0.10251863, 0.17617339, -0.20817421, 0.18839975, -0.04140264, -0.03156867, -0.17394543, -0.05602067, -0.07391715, 0.07235709, 0.10487174, -0.07708526, 0.06678669, -0.02112456, -0.11880948, -0.00890366, 0.01820634, -0.10507111, 0.04787312, 0.02680859, 0.05735826, -0.00236224, -0.08913170, -0.22342396, 0.03895149, -0.07774609, -0.02922092, 0.08002323, 0.04790573, -0.33090410, 0.06538087, 0.09304025, -0.01780703, -0.03210905, -0.09331777, -0.04965022, 0.06606077, -0.31584793, 0.04368618, 0.05047335, -0.02626008, 0.02738232, 0.00329205, -0.10208648, -0.05480290, -0.04445397, 0.10019159, 0.06652737, 0.00766920, 0.10018483, 0.01878978, -0.11195201, -0.04181822, 0.00161114, 0.01002065, -0.06677520, -0.03355942, -0.06464918, -0.06164416, -0.09450857, 0.01328094, -0.11481038, 0.04148078, -0.05732547, 0.02234910, 0.07633264, -0.04438120, -0.02798737, -0.00849998, -0.11878186, -0.04474791, -0.08115895, 0.04670901, -0.04944577, -0.06842118, -0.02516205, -0.00686193, -0.04037398, -0.10327894, -0.11346943, 0.05121449, 0.00080422, -0.04124262, -0.03466179, -0.04302733, -0.12373965, -0.06837167, -0.08382714, 0.05594566, -0.02458925, -0.08636835, -0.01361677, 0.05965098, -0.06444392, -0.02960733, -0.08526599, -0.02009880, 0.03396605, 0.03424769, -0.10167825, 0.04784492, -0.11706331, -0.09457017, 0.03173932, -0.04336468, -0.03395675, -0.03115019, 0.01466519, -0.11103683, -0.05042677, -0.06742284, -0.10558198, -0.04759441, -0.09852213, 0.04866100, 0.07083575, 0.00334882, 0.07856218, -0.08071509, -0.04092997, -0.07034859, 0.07266886, 0.03160726, -0.01945792, 0.01423951, -0.08539451, -0.06926443, -0.07854398, -0.02075104, -0.05320866, -0.01192276, -0.06523287, -0.01112980, -0.00303436, -0.04706360, 0.02934598, 0.01790439, 0.04100865, 0.05179509, -0.09746555, -0.05569559, -0.09088840, -0.12286826, -0.12623274, 0.02804678, -0.03146107, -0.12186267, 0.06624074, -0.01850733, -0.10620635, -0.00810654, 0.02110778, -0.09902672, -0.01360145, -0.07878103, 0.03901563, -0.08032955, 0.05611211, -0.05751245, -0.10889335, -0.07854466, -0.11751931, 0.06509792, 0.02206308, -0.07413825, -0.01241263, 0.06990488, -0.05191543, -0.08449396, 0.03044778, -0.02369870, 0.03286875, -0.08599299, 0.01268549, -0.00729398, -0.05219371, -0.09228071, -0.05353776, 0.23487288, -0.32369062, 0.24161503, -0.05771134, -0.03178265, 0.06542081, -0.02451532, 0.02713562, 0.13532948, 0.08886252, 0.01397090, -0.15165986, -0.03526291, 0.17269686, 0.01695666, 0.07828476, 0.20134377, -0.63123620, 0.08577571, -0.28056297, 0.04422736, -1.13501132, -0.01617574, 0.27887779, 0.05304719, 0.03797121, -0.06888790, 0.00575829, 0.03746538, -0.11285946, 0.10138196, -0.21692987, -0.02454814, -0.09438604, 0.20507044, -0.09066153, 0.28123268, -0.07054707, 0.31112576, 0.15636653, -0.10892035, -0.13438097, -0.01624835, 0.02953569, 0.10547471, -0.33336806, 0.03379513, 0.14463662, -0.01772705, 0.18057013, 0.24163990, -0.01344514, 0.07956178, -0.06856177, -0.08482874, -0.07973818, -0.05545634, -0.02152846, 0.06774348, 0.21149136, 0.09189779, 0.09456615, 0.03396041, -0.36819804, 0.08245038, -0.00269940, 0.32933539, 0.00064087, -0.12004540, 0.08846518, -0.04287973, 0.06082429, -0.07448056, 0.14130849, 0.00618960, -0.03947790, -0.05766680, 0.02793944, -0.11195472, 0.23100023, -0.26594678, -0.21355070, -0.01551228, 0.04428665, 0.30447984, -0.16224451, 0.01161719, 0.09811553, -0.01401214, -0.02970127, 0.02379712, -0.07928267, 0.14843193, 0.08291855, 0.02405373, 0.28424641, 0.08734696, 0.06106078, -0.00624431, 0.16362941, 0.21802498, -0.02710356, 0.04281593, 0.34272921, 0.08407579, -0.14438215, -0.21319136, 0.28843930, -0.17500407, 0.00593035, 0.07005975, -0.02227510, 0.15666738, -0.00880535, -0.13219690, 0.15232217, 0.13257538, -0.07575353, -0.04467344, 0.02569342, 0.13009089, 0.02830189, 0.07436724, 0.30727822, 0.05182851, 0.13389835, -0.17643264, 0.06333151, 0.00313847, -0.01945158, -0.03418152, -0.03668810, 0.00186970, -0.08625161, -0.06664426, -0.00505279, -0.06502842, -0.05413195, 0.05618301, -0.03312057, -0.03104874, 0.05787044, -0.00534791, 0.00500473, 0.00881173, 0.03195743, -0.01420579, 0.02019222, -0.08285253, -0.04630229, -0.09592150, -0.02009673, -0.00901670, -0.03551219, -0.08126581, -0.00950516, 0.00835425, 0.00346832, 0.05809718, 0.03015872, 0.01496219, -0.02415072, 0.02890878, -0.00989680, -0.00854027, -0.02052412, -0.04183370, -0.08444294, 0.08410540, -0.02503176, 0.04386865, -0.02196123, -0.07503803, -0.00380975, -0.07681148, 0.07842955, 0.00690963, 0.03683853, 0.06833407, 0.00141470, -0.00772636, 0.01681028, -0.00137465, -0.07371878, -0.03189859, -0.00882114, 0.00626796, -0.05879947, 0.07486805, 0.04185998, 0.06918222, 0.01239252, 0.07651323, 0.01088362, 0.00224206, 0.06723855, -0.02729867, -0.07932474, -0.02384405, -0.01613666, 0.02951462, -0.09028567, -0.07730993, 0.01758631, -0.04566021, -0.04844155, -0.05519833, 0.04365463, 0.04831357, -0.05737194, 0.07025557, -0.06689734, -0.06031850, -0.07043970, 0.08201148, 0.00412878, 0.01999188, -0.07126444, -0.01093083, -0.05234540, -0.05226990, -0.04209919, -0.01769730, -0.01853397, -0.03381272, 0.02665039, 0.00809701, 0.02822217, 0.04304480, -0.07754552, -0.06824769, -0.02636188, 0.07955042, -0.07531818, -0.04505269, -0.07522589, 0.04904802, 0.04120275, -0.07960605, 0.07632193, 0.01594297, 0.04216514, -0.08800580, -0.03547257, -0.08227954, -0.00409087, -0.09206967, -0.00176950, -0.01720157, -0.03157560, -0.02200549, 0.02490777, -0.07525229, 0.03516651, 0.06942727, 0.04847453, -0.10820241, -0.00585518, -0.03234125, 0.09644067, 0.07327451, -0.08134399, 0.00607034, 0.10000493, 0.00526931, 0.15697272, -0.01745795, 0.05870312, 0.02058696, -0.02242887, -0.30549821, -0.09501215, -0.11854695, -0.03581820, -0.07500673, -0.13186291, 0.12523851, -0.22860202, 0.04283630, -0.15977255, 0.11606535, 0.13418260, -0.02034526, 0.08000502, -0.16249417, 0.17587163, 0.06946475, -0.01336282, 0.08051416, -0.05628311, -0.09013573, 0.17097077, -0.28604943, -0.10311045, 0.20929015, -0.20243503, 0.16641919, 0.15321933, -0.29044646, -0.11124893, 0.14443080, 0.20571980, 0.03932642, -0.14387932, 0.11472847, -0.02962330, -0.29234505, 0.10501221, -0.24929616, -0.06043986, 0.17289868, 0.08115045, 0.03167805, 0.00358855, -0.03165521, -0.10459407, -0.20893952, -0.22983615, -0.07088398, 0.06004388, -0.15963773, 0.15478498, 0.01447783, -0.22871944, 0.09883517, -0.09063323, 0.04010955, 0.10379229, 0.02789174, -0.05627406, -0.00678849, -0.41407454, -0.05291820, 0.08912957, -0.02563288, 0.47513726, -0.08780651, 0.08222107, -0.06190760, 0.02654128, 0.01363020, -0.04529760, -0.03920393, 0.03380833, -0.16632795, 0.01593560, 0.13998453, 0.09800915, -0.01875532, -0.11150559, 0.10578071, -0.13319862, -0.04056315, 0.13601646, 0.05122934, 0.08893769, -0.00897396, -0.02156609, -0.04485878, 0.01776676, 0.08640358, -0.06393814, 0.05917819, 0.17942505, -0.02578913, -0.06748538, 0.12271061, 0.06645926, 0.05712228, 0.10631835, -0.14744605, -0.10520276, -0.25834563, 0.09788532, -0.00963597, -0.02010465, 0.03528097, -0.06458542, 0.04781044, 0.03450966, 0.01360498, 0.17914842, 0.11195680, 0.03469962, -0.02303424, -0.06267350, -0.08710054, -0.02561359, -0.05046997, 0.00810352, -0.09181635, -0.04542542, 0.04183405, 0.05333412, -0.03983867, -0.01924482, -0.08457826, -0.08468602, -0.02845782, -0.04760955, -0.03993577, 0.07002784, -0.03279277, -0.07839442, -0.02081918, -0.07436698, 0.00400201, 0.02757757, 0.06254226, 0.01383084, -0.04011414, 0.02717038, -0.04441426, -0.06473787, 0.08083465, 0.07184984, 0.01744795, 0.04192762, -0.08148153, -0.03326342, -0.01869571, -0.01574283, 0.03669563, -0.07488240, 0.07144801, -0.02535143, -0.03193824, -0.02771727, -0.08552840, -0.07599641, -0.04575045, -0.00530147, -0.03361785, -0.05568643, -0.05854729, -0.04868260, 0.05297595, 0.01782656, -0.04737495, 0.01262024, 0.00919087, -0.05188241, -0.02082600, -0.00301830, -0.06845999, -0.00959818, -0.07843956, -0.00309681, -0.04549228, 0.06007542, 0.03616246, 0.04373522, 0.05492125, -0.08142883, -0.06738935, 0.06344246, -0.03177598, 0.05340932, 0.01432358, -0.01939194, 0.06234809, -0.05507839, -0.08097558, 0.06360242, 0.08766454, 0.05571423, 0.04604817, -0.00182910, 0.02500967, -0.04762538, -0.07229266, -0.03375079, -0.06941193, -0.00120954, -0.05881241, -0.06180178, -0.06250214, -0.06886642, -0.03857800, 0.05977970, 0.06733686, 0.05352882, -0.00003776, -0.01354017, -0.07659827, 0.04635203, 0.04589260, -0.01010932, -0.00299470, -0.04201562, -0.06153228, -0.02776757, 0.05212713, -0.04129142, -0.00192466, 0.03211772, -0.00488601, -0.01795835, -0.02151345, -0.09165644, -0.09163877, -0.07178601, -0.01696713, 0.05929389, 0.00539960, 0.07051412, 0.00610307, -0.05773640, -0.00877706, -0.02710176, -0.03954892, -0.04518246, -0.32496199, 0.19888863, -0.06585994, -0.19175285, 0.10874257, -0.08509614, 0.09124073, -0.21452689, -0.04369999, 0.12110818, 0.03850440, 0.01287466, -0.04778404, 0.14442766, 0.07943410, -0.13077237, 0.17945242, -0.05048516, -0.03804380, 0.05924068, 0.08726018, -0.10544448, 0.03039681, -0.08220245, 0.07159796, 0.09548580, 0.02693473, 0.07287157, -0.20327339, -0.00938783, -0.01287253, 0.11039204, -0.09262619, 0.14834340, -0.11960207, 0.14743802, 0.07466807, 0.05007469, -0.14490947, 0.00989527, 0.16647154, 0.12230824, 0.07618141, 0.18140014, -0.01186354, 0.06239009, -0.03206500, 0.03925821, -0.03558905, 0.03078100, -0.10543950, -0.06909022, -0.16684783, 0.11218431, -0.07143913, 0.02197080, 0.09882046, 0.12157076, 0.08972596, -0.15873913, 0.07160554, 0.09525088, 0.06645156, 0.04884664, -0.29949829, -0.10330476, -0.06862824, -0.09097961, 0.14906828, -0.25650170, 0.05452598, -0.02745360, -0.14065742, -0.04839209, 0.09674670, -0.02439293, 0.12441148, 0.21539037, 0.25313672, -0.15818396, 0.00093454, 0.05492746, 0.07351827, 0.01527776, 0.01090428, 0.16502516, 0.00685748, -0.06316072, -0.15067340, 0.05787472, 0.05159690, 0.02691223, 0.09359766, -0.04213131, -0.12113535, -0.01752167, -0.16155258, -0.11217229, 0.12582350, 0.01652627, -0.02496703, -0.03034704, 0.10921362, -0.18745178, -0.27912676, 0.22039129, 0.07578909, -0.05230991, 0.09051318, 0.02822844, -0.24133633, 0.12520546, 0.04124564, -0.04965739, 0.09878009, -0.01451486, 0.03446176, -0.00462509, 0.05346647, 0.17691989, -0.18540409, -0.05515623, -0.12942788, -0.00549686, 0.14640632, -0.49812305, 0.18481633, 0.02791490, -0.21931131, 0.25660557, 0.02705624, -0.03021535, 0.12571336, -0.01411125, 0.07613993, -0.13146842, -0.09062999, 0.22943231, 0.07373820, -0.02077886, 0.15948504, 0.17025098, 0.23137218, 0.26258233, 0.17355199, 0.01171476, -0.02753924, 0.03986641, -0.11891393, -0.14779598, 0.03256428, -0.07172798, 0.03015840, 0.01853496, 0.16640471, 0.03964591, -0.14562027, -0.07437762, -0.00734335, 0.22582750, -0.16453592, 0.12253643, -0.08758523, 0.20693192, 0.18096781, 0.17064510, -0.21928760, 0.12817192, -0.03255399, 0.20379862, 0.17511527, 0.04146538, -0.07423038, 0.14700918, 0.39700779, -0.02573614, -0.07632582, 0.06044260, 0.05441731, -0.09779699, 0.14119966, 0.04424175, 0.08557916, 0.00969095, 0.15513283, 0.04446661, -0.01395763, -0.14335084, 0.23456469, 0.07847779, 0.06387214, 0.04460967, -0.10239866, -0.20377354, -0.11084070, -0.26565686, 0.08984604, 0.12636138, 0.11000733, -0.12731299, -0.27888280, 0.15277021, 0.09864502, -0.08900488, 0.05894919, 0.22493571, 0.29661953, -0.17147106, 0.12003648, -0.07142748, 0.12919611, 0.03253733, 0.12365149, 0.11390375, 0.16855073, -0.04214619, 0.00156097, -0.00002648, -0.07390320, 0.20040138, 0.11400832, -0.04274245, -0.03166801, 0.02512129, -0.22757135, 0.06453413, 0.05954054, -0.16634564, -0.08856209, -0.02923606, 0.03155678, -0.12995444, -0.23252022, 0.00385414, -0.03981667, 0.06341135, 0.19011649, -0.04146334, -0.37432969, 0.11709540, 0.07644793, -0.23185925, 0.14159267, 0.13703638, -0.02163361, -0.15071514, 0.02049115, 0.20951207, -0.27599910, -0.07810016, -0.18287411, 0.11921349, 0.00276441, -0.62353432, 0.16876291, -0.07415443, -0.09123301, -0.02666292, -0.05376144, -0.01538633, -0.03362923, -0.08259123, -0.03526563, 0.03409945, 0.05801970, -0.00645459, -0.07467576, -0.00103083, -0.02245636, -0.05909989, 0.08252789, -0.08735244, -0.06273267, 0.05416103, -0.05194718, -0.05557829, -0.09634530, 0.06116860, -0.00948652, -0.05092865, 0.02543196, 0.02293504, 0.04680889, -0.05054249, -0.07826080, -0.02451454, 0.06361646, -0.00115630, -0.04308316, 0.01544696, -0.08597388, -0.04314961, -0.00470660, -0.07224541, -0.07281124, -0.05966906, 0.00586752, 0.05891957, 0.05151627, -0.07515179, 0.02255120, 0.05626520, -0.08158409, 0.06471802, 0.05357509, 0.07749422, 0.03379807, -0.01882879, -0.00947346, -0.00507902, -0.00476534, -0.06698204, -0.10053737, -0.03309033, -0.08592086, 0.03733988, -0.00274557, -0.03685573, 0.07268616, -0.06764513, -0.07843054, -0.07507675, -0.00081001, -0.00134958, 0.04019712, 0.07593793, -0.07582430, -0.09974338, 0.06230576, -0.02584737, 0.00324584, 0.00611772, -0.00647951, -0.08139998, -0.01477311, -0.02380560, 0.02239910, 0.00332563, 0.05899595, 0.05419752, -0.04210974, -0.00028061, -0.06988107, 0.04069378, 0.04475433, 0.01935453, 0.00586678, -0.02827176, 0.03894930, -0.03291676, -0.00030896, 0.05609133, 0.07473511, -0.08417863, 0.08811416, -0.09864338, -0.03468806, 0.02301846, -0.06293295, 0.04173830, -0.01662635, -0.05374667, -0.07164455, 0.05293242, -0.03266189, 0.02279285, 0.06403783, 0.00065821, 0.06707697, 0.01019496, -0.05946010, -0.01607205, -0.07795921, -0.02626581, 0.06995469, 0.03731701, 0.07378729, 0.02968168, -0.06665100, 0.07378110, -0.05218804, 0.05495097, -0.02768272, 0.05928333, -1.88495636, 0.09065348, -0.13735968, -0.05145991, 0.02610353, 0.14501777, -0.58825457, -0.48587006, -1.37848246, -0.00338016, -0.02923127, -0.14253317, 0.06069597, -0.04064890, -0.01704579, -0.05208810, 0.04072263, 0.02066282, -0.05441336, 0.07104698, -0.29492801, -0.06611602, -0.06205009, 0.07476784, -0.09558465, 0.10680829, 0.16808052, -0.11357371, 0.02726937, 0.21763821, -0.06503611, 0.13274176, 0.13191704, 0.10124970, -0.05238781, 0.09235989, 0.07141026, 0.05234058, -0.16876827, -0.02529868, 0.04471837, 0.18092929, 0.17575002, 0.16114336, -0.09762986, -1.91226089, -1.03751433, -0.12819837, -0.17974557, -0.04655853, -0.07143884, -0.01602173, 0.00498866, 0.06266563, 0.10816856, 0.00671886, 0.16147746, -0.07210245, 0.03624665, 0.00159158, 0.09507231, 0.07205414, -0.00193689, 0.06431349, -1.36065686, -0.23438318, -1.39894640, -0.72627336, -0.19382511, -0.08257672, -0.24230163, -0.05765904, 0.05423528, -0.22460073, -0.06996801, -0.11161192, -0.03644395, 0.02509465, 0.16435136, -0.05604383, 0.15241465, -0.02527978, 0.18634358, 0.16115636, -0.00886761, 0.11341799, 0.08047079, 0.02940935, -0.04700715, -0.01098123, 0.03575990, 0.07810476, 0.04018153, -0.12824547, -0.01934578, -0.02945544, 0.05511537, 0.13945770, -0.01793888, 0.05914342, 0.17178905, -1.14293289, -0.07926333, -0.71949869, -0.62654716, 0.01446640, 0.06155657, -0.03186295, -0.00635568, -0.01536608, -0.01204378, 0.06885609, -0.02374745, -2.20290160, 0.13743366, 0.05647378, -0.01557812, -0.13422276, -0.40572149, -0.03688578, -0.37823087, -0.11649757, -1.16991317, -0.00446446, 0.09973744, -1.14493489, 0.26307374, -0.17230640, -0.17524050, 0.23558679, -0.05349620, 0.07221298, 0.10870064, -0.02663947, -0.02239729, -0.27074885, 0.01862174, 0.16899121, -0.01251583, -0.05007166, 0.04005089, 0.04610754, 0.00036554, -0.13443445, 0.03949006, -0.15574564, -0.10053877, -0.05311697, 0.16433802, -0.41355672, -0.03900656, -0.16777256, 0.22974887, 0.16755821, -0.03593972, -0.05110141, -0.12507570, 0.15593547, 0.01872665, -0.00740849, -0.01682204, 0.19663228, -0.12432224, 0.32529777, -0.04889064, -0.07405069, -0.31653804, -0.05370173, 0.24406466, 0.24227263, -0.01847397, 0.08215566, 0.05716275, 0.05561842, -0.05942390, 0.01667609, 0.10718839, -0.03784298, -0.19947864, 0.06818080, -0.32497439, -0.07806802, 0.05111451, 0.24126889, 0.14092492, 0.23360065, 0.17278896, 0.10057303, 0.03213461, -0.16745627, 0.12385917, 0.22844236, -0.07649412, -0.03556830, -0.01061441, -0.16975068, 0.22807541, -0.20003904, 0.02964086, 0.05196700, 0.10850599, -0.05833599, 0.00508487, -0.25098231, 0.07127585, 0.30846936, 0.09146696, -0.19444500, -0.10519204, 0.03155721, 0.03143116, 0.02979924, 0.05385235, 0.13099031, -0.08620846, 0.09260256, -0.06942198, 0.11269312, 0.15792730, 0.04945420, -0.05312438, -0.10149124, 0.03934506, -0.27204126, 0.11915088, 0.15602624, 0.03970162, 0.09953950, 0.07096380, -0.05885495, -0.06157108, -0.53018403, 0.01719837, 0.00415158, 0.07309473, -0.16102369, 0.00886777, -0.16910425, 0.08044139, 0.05432119, 0.03207935, 0.00150091, -0.12071130, 0.12580760, -0.10126243, 0.00683998,